-0.014931679943995938
0.503827168433091
-0.07510085990730556
-0.02253131151994406
-0.9968401723871188
0.04364152444931307
-0.029814841578381546
0.09799995526772146
0.024933040009781453
-0.33568694121487547
0.037041198175326556
-0.35752701862148795
0.35032657170976755
0.16621697110762057
-0.031397254316358314
-0.20037778188578248
-1.5407231270602992
-0.2092441686619557
0.03722768269824874
0.0011291901242297332
0.0040471588320233716
-0.8578540168406147
0.18630231872219571
-0.004857504967596559
-0.009850567675136715
-0.23819948832270926
0.23246057143207538
0.3813330541660868
0.00017586994960834844
-0.03652370022564762
-0.3098378714451419
-0.002113659161708451
0.02486388360397748
0.00023156703066545562
-0.023720849316141303
0.8438879967963194
-0.05763806050237204
0.15269295926064516
-0.008946639452026051
-0.5959110643615497
0.03245612139169419
-0.009835255501934596
-0.15232364717742722
0.02074010712146937
-0.011591977249647665
-0.08732420673511436
-0.028245055323142344
-0.276264885057617
-0.05518810268412285
-0.007249247201559959
-0.030592326433854504
0.030806500397350292
1.3303775512191938
-0.887616251051526
-2.2610417090620656
-0.6753808527073643
-0.005344749349113301
-0.17677310641842203
-0.011058153132968542
-0.0660189170574108
-0.9883955021239419
0.15788478986140045
0.026371312215779565
-0.01063068698394335
-0.08208277717814823
-0.12101481405579285
0.7466057376118819
-0.05971318106282791
0.1620445920628094
-0.0021620050509507886
-0.8062146475428782
-0.012627427091636749
-0.06456056364014587
-0.05668973624560915
-0.814925437452844
0.0718620873789715
-0.08063781016240194
-0.7484393820065807
0.3469671864099358
-1.1322595883355948
0.38687238175452404
-0.07533717727357703
-0.035528731865434794
0.005494190801744489
0.01832087243451947
-0.6113429013479127
0.2295642321776961
0.02105043970859564
-0.003455147384794612
-0.043508267687564384
0.11168532593817615
-0.3325086614151607
-0.01179317587072626
-1.0698892676013538
-0.03146035632319933
-0.039964856221247694
0.031009004904111633
-0.05720218644200557
-0.4626328346621537
-0.002621182743487173
-0.457578962752855
0.025058276701241566
1.1519431316602442
0.0361031621788386
0.0062927510130945455
-0.6238549765595365
0.034782730485925444
-1.198441128982511
0.020746058162555203
0.410631719070136
-0.06078395315802149
-2.3727994608878724
0.029699415477579125
-0.03018025707015194
-0.010879630961031835
0.016916143336980344
-0.31364656658254014
-0.24076685140437268
0.03632930121935799
-0.05243762630544357
-0.06911899304340839
-0.31808806649228605
0.012643881907461
-0.2526308252168346
0.09370564668517226
-0.36688404835957494
-1.108607086994733
-0.10802682397544267
0.20051630040836413
-0.8835807591188477
-0.003819880210175498
-0.90080155808712
-0.004859305267075297
-0.9500484401922076
0.03753503016873374
0.0008876451093119742
-0.000734310933811409
-0.8200524419919337
0.0005091830231164802
0.022325336706387505
0.31536954590978084
-0.9400826098631476
-0.17087650048597383
0.046474776397318084
-0.6083244078823596
-0.0012199439314456056
0.1962464278238957
-0.04921361233578712
-0.031268517912604196
-0.558609049389325
-0.029281189431474654
0.021180636092205014
-0.003548669933236985
-0.8108184989691319
0.1347647364354399
-0.004465067525721272
0.02689300575693099
-0.004566139738780931
-0.3614906061242927
-0.006475718887120444
0.11498868434690082
-1.2430760659222364
-0.6300753409251799
-0.06742347704584463
-0.05009619659830883
-1.344230299009248
-0.00027725524680178963
-0.0961227840518712
0.21139348786754067
-1.5151481200563892
-0.1671353954698268
-1.8687964872901097
-0.005737415637346971
0.16464511378674013
-0.0398061198128272
0.1578933687475441
-0.010269345115833238
-0.011984053291875378
0.025548080754089496
-0.43896291891049805
-0.026138092733980656
-0.30484270031382654
0.12398050060973617
-0.01815390951255405
0.01475462170374569
-0.2405908079307742
-0.008429535450101755
-0.02713386974165842
0.011038506380864366
0.028071589385635087
-0.7021515508817808
-0.5348541599951991
-0.0037521863882446294
-0.3173399386078798
-0.40965384742424565
0.02192017905132335
-0.7771783460471239
-1.5388095860493254
-0.3074022468877561
-0.018149077431743165
0.0102062118713458
-0.1485015328067834
0.9003440710364312
0.0621787804890074
-0.42752588709940215
-0.006882647197121935
-0.01023841161736981
-0.00111976803587307
-0.014076172951024628
-0.009131115717170788
-0.7537961472905267
0.028858133329302392
0.01610836540930145
0.002788209106596758
-1.4131537312231919
-0.02050484894947471
-0.2848670755270104
0.009911687849575133
-0.344141483107997
-1.0926178429831777
0.030645310986817133
0.025135398361173827
-0.418735333511122
-0.2258895817058295
-0.3819236375436634
0.8547515599522416
-1.0965300173359878
-0.038648976388476655
-0.008935606589061002
-0.008138397027131828
0.023623753292467593
0.018246308215345713
0.3134053649693175
-0.2360920530270333
-0.955613351736405
0.0316714748258083
-0.0645644824696621
-0.2979099619391042
-0.2362951341727265
-1.1667552627718218
-0.04332305678563935
-0.575616224455195
0.44243621345478396
-0.7174090838678052
-0.6027883103523732
-0.0238524867419282
0.36865801799480485
-0.3642219385545284
0.2732061346599621
-0.32862886064437824
-0.0058208066188400465
-0.05708042052530897
0.5222309153520734
0.013045818317661976
-0.0025169647235529172
-0.018519011418817018
-0.2922919471197507
0.25595940248931076
-0.005545584785215074
-0.06102139400681946
-0.1587942864083341
-0.033694603166652536
0.00122049749781946
0.00030960533530588686
-0.22900764348092248
-0.00639623104069844
-0.36865208494773394
-0.006681037093656759
-0.007425876352597261
-0.1401297653904997
-0.06996991180559159
-0.03446980359224345
0.5221555094826799
-0.008956798742302496
0.14423919118197892
-0.20376504750794316
0.4948185588507244
0.9729291447254768
0.6095583097826673
0.4316868154743198
-0.7930349388164489
0.02802789598827524
0.4683021821698436
0.5670313026899148
-1.2966785395024583
0.014018266334886434
-0.0027640675589760445
-0.08058395909145515
-0.006708404359679459
0.06860293339997935
-0.4469529696643147
-0.005385485919957543
-0.017962422540071313
-0.02229323995019942
-0.15092289184954477
0.18230116564899973
0.14704110476579202
-0.3822822191794561
0.546757826965965
0.0036601522626378918
-0.04221653644695007
-0.1252390164952377
-0.02773923116182211
0.46613912915926775
-0.57609011223806
0.9371169879215567
-0.012035652301980986
-0.00031627221217624384
-1.350640764524408
-0.007374100970398853
0.5308946022368717
-0.03108755986521189
-0.485359970215869
-0.07368176110782561
-0.09222888582450979
-0.16573790744441178
0.03460336857332293
1.2053321779157256
0.023149827932479113
-0.09442622499152964
0.3355808549054686
-0.0014650177469525646
-0.585862623145659
-0.3277068214997515
0.26721399427791087
-0.07011345942464164
-0.027925462579782713
-0.022669531224444563
0.0924486911206492
-0.31554982716665847
-1.2243400662497874
0.5680017281653947
-0.011222387577691456
-0.049257439548834624
-0.08609458277065521
-0.07550649018433685
-0.35329264288334733
-0.016472549069426176
-0.034240048464075426
-0.4039936124813902
-0.05651860664512721
-0.5699894073437399
-0.7928116543258519
-0.00534236327143838
0.03541763893261957
-0.09252065932967031
0.4652582126486597
0.02152439788072152
1.0654615498140945
-0.002298862868251359
-0.4199802437546249
-0.011662659126513882
-0.008596664378211279
-0.07634986760615527
-0.00519272960862862
-0.32601373025048713
-0.045603506315618346
-0.001345479272499942
0.004204217359692675
-0.015178623733040287
0.10658335088170286
0.37708224839703264
-0.12756046584621256
-0.0066395156572664205
0.8915014026055962
-0.010669780688959504
0.001981328730111337
-0.588433485969393
0.5400435033918732
-0.22083889052948683
-0.36803481378923664
0.036415578249818004
-0.10783402290394126
-0.273129262386132
-0.0015597186107534566
0.015715069243821884
-0.4661529288004405
3.601584392891484e-05
-0.011061645842250306
0.42444735869505046
-0.08714133511684823
-0.06092119337291355
-0.5210975040389983
-0.41387707261097373
0.03244633849391177
-1.1997544162528047
-0.06955519754275884
0.07696371209694768
-0.25969981105927986
0.4404433183672004
-1.3273745476825145
-0.005358800920085263
-0.3941260075062883
-0.009170587208117725
-0.07414213295842766
0.021515636469929475
-0.02112205230389363
-0.22813438581264153
-0.12947846913711142
0.06542040475032676
-1.2194150291109753
-0.0876692555791687
0.021110463588225617
0.038282600531633126
-0.06463797218131936
-0.7861375342233852
-0.20631708838752036
0.07536408763679066
0.7092056927749089
0.32299634717582054
0.41292536097347254
-1.1066332234679364
-0.009500892075474688
-0.02660141885587406
-0.48227767704408003
-0.0016282712968586994
-0.012632132501022722
0.2309270151152557
0.03064514876441432
-1.2397495023238652
-0.04626647954984971
-0.16870345018887448
-0.065392607861042
-1.210933903716698
0.7208460498211033
-0.34048628359575606
-0.030726475597831863
0.4026868072176303
-0.36786812037600713
-0.009185155778878464
-0.5416740162390786
-0.22803132133728468
-1.863201540695882
-0.014259782134272009
-0.013497469286345064
-0.1387586000050285
-0.014599272160618156
-0.0026216674623304966
0.7365957118055632
0.6552383056654129
-0.054751752180557944
-0.02392499783557858
-0.027456377289064474
-0.2816032262764012
0.0494024071096984
-0.05137886508183515
-1.4068631969935372
0.030708146091669008
-0.12000260686911414
-1.5111212873374522
-0.9752937567998174
-0.06576137452960937
-0.5146945767312066
0.02424696367571899
-0.3804127672640891
-0.006380298145215377
-0.005598498419463602
0.2924132479245285
-0.04951974631384421
-0.8667933423257769
0.023271110780501897
-0.2226647190705875
-0.8385282557351497
0.019554460808034323
-0.4485197537437321
-0.03782223467780502
-0.7674512042101537
-0.14354718293131982
0.6124135825752619
0.008419803487126957
0.22777177802817902
-2.572794590341905
-0.010378618514789113
-0.06130701768672219
-0.011934150748119906
-0.8402756519091491
0.23901274370607892
-1.6842469388293646
-0.005807839165567217
-0.03210075267282678
-0.024632167257495622
-0.1545362770898753
0.005163457451422782
-0.11897909149916905
-0.003932423019074928
-0.01129779093495544
-0.005053430224628514
0.0003758742006464311
-0.18803195432095435
-0.0006186481811160044
-0.012204816314375049
-0.03669148800966088
0.03178488931660586
-2.1264137911226033
0.3312033728079277
-0.13591831918056188
0.021325873383759138
-0.10222005291630136
0.007329857333907897
-0.05204241273234389
-1.8906179739904425
-1.480211483785568
-1.0526256756330703
-0.28679931757824234
0.3063333210918183
-0.9728097937813376
-0.7675904748157807
-0.016009152814778143
-0.04613206958202675
-0.033398729092565464
-0.5667518715274746
-0.2191374197445403
0.20658676554954125
-0.00952766749305109
-0.05319653416719923
-0.6085542109149757
-0.0005681290587237226
-0.01245458133299753
-0.3000073273503218
-1.532108546361843
-0.012955945970300349
0.01740381936365315
-0.6185089600476127
0.38302995547972823
0.030920400235802135
0.005988190203776178
0.0005160528005995345
-0.046346874955719805
-0.0032049238762633706
0.004536742304152633
-0.44286792955243537
-0.5857779662637191
0.0780488925755183
0.11417222262543489
-0.019482653846113234
0.9745838476758628
-0.7028163974795725
-0.3560230025690416
1.097544723879093
-0.27733275127307694
0.9135003618307039
0.12756812655448854
-0.11276304821546272
-0.5667868951736825
-0.566215794819965
-1.4176169739835027
-0.012062383862849082
-0.06100062820272716
-0.5349797506404247
-0.17810179866482906
-0.2274511346973515
-0.005400185937214949
0.001416779349276827
-0.03127732236148887
-0.08224513933497754
0.012373124399114963
-0.06532056761086402
-0.07603045791928527
-0.0444981572554347
-0.5178941157801197
-0.007590236444292298
-1.9723894333652898
0.0012974189959557869
-0.08215861260079235
-0.006957143263512306
-0.011311411089067538
0.02569595207385243
0.027922340957100927
0.07594635865503008
-0.01816086769324171
0.03514393382261206
-0.21377885152850104
0.18272512841191416
0.36187057777615383
-0.06760594150902977
0.9106609674180615
-1.1088655764083244
0.03033916763737248
-0.8682474603709568
-0.33704782942140926
-0.002420042052491137
-0.5138356755983651
0.019248425459357822
-0.005353594070361322
0.4486938352890133
-0.8238175634191667
-0.09722126967682079
0.03985315673061959
-0.8450108080836364
0.6096427313802826
0.0076490747336013225
-1.7211040153018624
-0.052845816091357634
0.030899900368588935
0.6428675588112382
-0.00962260251806031
0.07214205245119
-0.00045053463434051864
-0.007697782741885024
-0.061329457389209016
0.05943241318528977
-0.08210028038657281
-0.009854567739492325
-0.8917148571022754
-0.7773058021117011
-0.08459006819491491
-0.11260743289748988
0.3774884379660741
-0.05427671284999812
0.05129302099493662
-0.01170150753939945
0.021512301957673348
-0.5853335143068515
0.02748853959462898
-0.8110438262698089
0.24190496043015008
0.12976667488154103
0.005768423942079516
0.010599134027358629
0.3655297021980881
-0.9934371372819034
1.2408637068434163
0.032815247354173765
-0.7301075526919899
-0.004286816813079861
0.25944718637275954
0.4411100475171099
-0.5962086388276056
0.4585909984886143
-0.06660033120923768
-3.0425749385630008
0.41470576201404086
-0.2685233959990488
-1.0589006526890217
-0.4412235421452862
-0.008217163691220272
0.6779527463062133
0.06591966214629083
-0.8265470200253153
0.4705714724775925
-0.00790463834311009
-0.08182505331177804
-0.1212655749907428
-0.0005864134958431667
-0.005291599942728347
-0.8747644710109137
-0.04757238603955541
-0.032423609414233154
-0.1074999600213149
-0.1976835684458495
-0.009449516128455219
0.46948030493287357
-0.741200777899233
0.6966397465926115
-0.08861171759003969
0.023352840210472577
-0.038916411627641395
-0.23005491998142844
-0.003409018903012024
-0.3678423649136803
-0.28119006299718047
-0.02136494551747739
0.259526401382491
1.16382021254694
-0.9406735153623534
-0.2543810213323539
0.025374718702803715
-0.0070109087111629425
0.6440357470110866
-0.6792222061320019
-0.025906509770489694
-0.012789977789257155
-0.2348439068753467
0.3392377861652911
-0.008899955746093459
-0.010786456483279128
-0.6285577193941961
1.6114981035874225
-0.06290488948467524
-0.08132263827322836
0.09767803356587054
-0.07744187411938021
-0.027362163260419143
-0.036835414630145065
0.27593504979853445
0.000791593984812945
-1.3737770473564315
-0.29927780380684776
-0.044396545689777314
-0.08581454580896808
-0.42874098542840083
-0.010784424741588177
-0.34095619370913627
-0.7573194186574091
-0.01130520031047364
-1.8683153033452795
-0.008638715185807711
-0.010447688145074692
-0.7545790380904526
0.25194866893682316
0.013652948801036447
0.02909656199974972
0.010989204126657456
-0.08980962061194012
-0.6794722613182379
0.021931424667087075
-0.010107284796848357
0.016008961297810924
-0.007112746521486476
-0.34498964121120934
0.003371792325750468
-1.0373545189448918
0.2994167794623768
-0.007411060354398462
-0.005094815116036498
-0.0600174303162528
-0.517872910167958
-0.19527082000440513
-0.8122435310784039
0.01333448072828242
-1.4153710428262711
-0.012702251193453406
-0.011156540685411383
-0.005580601628777356
-0.0015745275000048126
-0.009399494076861125
0.12801006382926683
0.5294573370217762
-0.33291019708850933
0.07002858700861847
-0.0017245625358791041
0.08697722643716882
-0.06282738357625366
-0.2748055300675767
0.0029854008059745606
0.8236993013359213
0.8774857008139941
-0.0008750088583676702
0.24446279781635094
-0.8835677089418332
0.285364941195404
-0.9551863184333151
-1.0413833976832998
-0.07942991407262992
-0.42646834915859694
-0.5029265693471818
-0.010987895428407429
0.009263024967245185
0.1454945136171207
0.0021447703910511744
0.1750106915554901
-0.3536855520512304
0.5139324285850755
-0.01019690951576845
-0.007918413339922627
-1.4117486740805911
1.6635926149824651
-0.5067900519329259
0.06432236078200118
-0.005886243968078676
-0.008240881218479998
-0.019910301878788922
-0.025621473907959852
-0.35062473810978295
-0.6027615930404185
0.17306511458948762
-0.04869224638482955
-0.013620007308197605
-0.44955985354274797
-0.0044880962457443194
-0.13330410899881015
-0.24194843170532576
-0.08391593275306367
-0.5659325033507207
0.7349804901564063
-0.022609406674582
0.006558829464108754
-0.10699608050856492
-1.5819559531078198
-0.49188550322641444
0.9892663777383354
-0.0789997563011107
-0.006587651828375467
-0.0017283462393247154
-0.024712651748296136
-0.25827351587632885
-0.2619061746445423
-0.029947257724494768
-0.6142131945874967
-0.8438767127760303
-0.008510577867821096
0.5034259339439555
-0.8774852635164085
-0.012019310659069481
-0.003029561834781629
-0.9327529916588395
0.02257402822400766
-0.5824233267201734
-0.6579498927809753
-0.3038881543571847
0.0030229470622827226
-0.04954308006085817
-0.7944151175892373
-0.32874528214929116
0.026421268936969996
0.11887360004647021
0.3191902425575168
-0.7502531899658104
-1.267029353141132
0.02418569125308274
-2.1116642087901
0.07827407672095511
-0.06334252045370724
0.06495691547963701
0.030098558981167787
-0.32241289298516224
-0.06212676972011186
-0.011298995861261315
-0.003529732704907072
-0.05755335050607668
-0.21379481105097933
-0.10158300726972688
-0.8559312526069397
-0.032746334250140445
1.234638922509722
0.02030213957983658
0.016304024491172832
-0.42991931333647493
0.5339091656513212
-0.28467823801565767
0.0036548780296971014
-0.003043528146760906
0.02143748857231103
0.008761966110933727
-0.03786684572964018
-0.030971185489769088
-0.011144840545346599
-0.007989755503205865
0.7632683680322099
0.6232069743827919
-0.009458949573343249
-0.011554305883974455
-0.3105534677968206
-0.020397738727136093
-0.023480575542186324
-0.0714928146617436
-0.24457197004007253
-0.23946746752634906
-0.130274385889162
-0.0005055793378269949
-0.020509665398495653
-0.23895160632426815
0.8387533344105936
0.02636618301167721
-0.1371892745367021
-0.04457692359263069
-0.00875625844443288
-0.006755325028984058
-0.09848263428064626
-0.2189920696211286
-0.45736700429472066
-0.010835157947797337
-0.01951654371303087
-0.12081500327021996
-0.3076695065746144
0.02542934663469674
0.341142323091704
-0.05356287720774382
-0.05291004063181029
0.41369720999488074
-1.9322883950244838
-0.7128086265730504
-0.9554237201998066
0.10578444983839583
-0.025689795261250287
-0.46986187057534445
-0.044798174369481164
-0.13583612052547678
0.547209207719344
-0.7613880742119201
0.10048999897133666
-0.007062517103512314
-1.3329761171729997
-0.01298284703239406
-0.41962817889772325
-0.012126169029971046
-1.7187742133190567
-0.3574131446187602
-1.36858217979043
-0.4257261115557088
-0.006917734506356991
-0.18761488976449842
-1.0047307846708668
0.0027891814843840524
0.322521415027385
-0.040132988294376705
-0.40420905954907216
0.022420951455200296
-0.08884667282981779
0.6296588522822406
0.0022882776555961473
-0.021049682931406435
0.039215265325690175
-0.010792195925646002
-0.0627494700425703
0.017275747700422943
-0.10009715177972209
-0.565484213488426
-0.002796887905508795
-0.43214385681402434
-0.8828940973398237
-0.525547361734073
-0.04321393176605506
-0.023174347195698317
-0.004369405048656289
-0.4568264327430667
-0.10126269905992238
-0.28876673448051376
-0.00953825627301447
-0.17316185687648603
0.5469749315547143
-0.38398173332591706
-0.8992057926940614
-0.0024881097168501882
1.0189933164215699
-0.040834382317851525
-0.010282331231225253
-0.39370814671363386
-0.030701028738640626
-0.37691008557733396
-0.10357484259060987
-0.3267899735171891
-0.3279392117283127
0.33911941110565086
-0.0071164824368268355
0.26487956888902653
0.025747184420796553
-0.004954116857030309
0.06029157740202974
-0.0040674825591938924
-0.6308113691601149
-0.04050107394892049
-0.4077611822150122
-0.10085501325383447
0.005326938886874636
-0.30259218584144915
-0.03576704544436758
0.028315229061566548
-0.8882866256950779
-0.009592448571079496
-0.006883442414193008
-0.005939995549356442
-0.018173487970989582
-0.004534557853222217
-0.27311085415477837
-1.6059174591400842
-0.008938730620885143
0.021171550443892392
-0.09718305049914094
-0.08836175361160134
0.5807415623740099
-0.06825164772584354
0.01747599670611115
-0.009993570588388172
-0.05086551934908689
0.30497348437120647
0.38189169559298713
-0.7553622295411537
-0.2872077466986056
-1.1837483022873858
-0.030030777955567182
-0.2420583105224661
-0.2494228217560354
-0.06853173675264984
-0.3471682425561099
-0.9082168994762189
-0.7721925277460517
-0.28955305954994504
-0.5007624499382317
-0.002865454932551034
-0.06537130254399297
-0.061188887060074644
-0.018993657067438857
-0.6312523286614194
-0.3102205424286624
-0.04264638998952918
-0.01446636750303918
-0.9079937683919992
0.1343272299770641
-0.01099960883305709
-0.05663584879940694
-0.7151798824314114
-0.3185952293249704
-0.0014153286876093327
-0.05963520093389424
0.027496207710459297
-0.8318943139636767
0.04002375819557154
-0.0009424999459075282
-0.046974237370609115
-0.2719609134639635
-0.012462461526504749
0.028611938646823737
0.828680333794154
-0.08383040415148693
0.04561556458115862
-0.06729183033876786
-0.0047232049594699635
-0.07706425216156815
0.2989166388791659
-1.352203072481615
-0.0322199591051929
0.03452659445395536
-0.0017090678295027823
-0.13527838433826186
0.11978373672074918
0.09983363043788501
-0.8592178642011575
0.2023649770797796
-0.0007710456259490706
-0.033294273986501054
-1.0330090337100122
-0.004759311237996803
0.033883398907122345
0.09965837540964767
-0.0003332236559669055
0.033491894356637325
0.21429123526138383
-0.2408992860552554
-0.49410111697292
-0.06835051686243712
-0.45673730758897285
0.02521380754232339
-0.6968915661711302
-0.012868424391060493
-0.013421779551805083
-0.06663884292115277
0.24513299058473062
-0.11595423550522434
-0.007772283754283327
0.001862074801749542
-0.07166679219577195
0.008419022959854696
-0.1782105719027494
-0.07744074731710636
-0.2984170555215161
-0.10114739478005075
0.023726535023661482
-0.009827164962779838
-2.0470980999609862
0.4055246745542851
-0.07230787237559448
0.127215751069733
0.6641488404569234
-0.369049630543399
0.02138372298263584
-0.0032386824438893867
0.5267005871766748
0.03730568738438575
-0.06302809284577653
-0.1570177264464811
0.02508397034258141
-0.6475941834646952
0.592247391734198
0.009541768069492702
0.3666187637312727
-0.35856808970473386
-0.09706720875051182
-0.2551018818953142
-0.7154732791394193
0.350547157800495
-0.0035443625961018473
0.2461845048783535
-0.17791628797005762
-0.007999640506671336
-0.06929909900543106
0.08191721811246266
-0.326422712730328
-1.3617282227655203
-1.0365996694669914
0.8229270427233175
-0.007383552757230975
-0.7402822487073603
-0.046010818794830564
-0.9155797676115554
-0.07980888551034182
-0.07061066688523095
0.05112200392707695
0.6650407023331432
-0.008151599855342298
0.7237579773451763
-0.8883915437057927
-0.013916994779090213
0.003348096546933061
-0.008943043366669151
-0.07193956497861641
-0.5657854575794543
-0.010830313793828596
0.002815913225775363
-0.07126144080853751
-0.012072962969864473
1.0211350221808773
-0.1396799259667626
-0.6808412030840642
0.24966613719958866
-0.9997590310259499
0.052954170857204386
0.010640987059402392
0.07175355343697032
0.06983016248103067
-0.016519976615270743
-0.45813225873513
-0.007469604875059994
-0.012814581632211714
-0.008545939966860185
0.007435810362522778
0.04968002910446702
-0.6975269724425317
-0.030075527185622807
-0.20129245920961955
0.0032547936663981105
-1.1902184549662145
-0.3280706486345261
0.0003818185328906388
-0.0015763781407342019
-0.006412896275897014
0.14769338834349582
-0.752715467381071
0.37843833478891314
-1.0506268485169292
-0.0940212350738347
-0.3746758260500831
0.10782119614321234
-0.17938051790476017
-0.9512373070828638
-0.3883564133579876
-0.1413840190428634
0.03148144043365993
0.03323455375904957
-0.557379462198431
0.032148613869482666
-0.007762073760531328
0.00533681722068563
-0.05135267316856367
-0.9863874334553319
-0.09695286180489698
-0.1683966803797668
-0.03211075924547464
0.409379983366612
0.025672615953456508
0.014875064470259264
0.015739691549828565
-0.06239472472375651
-0.0098018095174866
-0.19227172655656238
0.028598227335541754
-0.4200328114576123
0.01266072604062379
-0.4890392284598905
-0.8577911340984621
-0.08323646909898613
0.07657354961496908
-1.2496984560018267
-0.14022402852271124
-1.5956292811600499
-0.1503165851386033
-0.17460600249490651
-0.4926653894855567
-0.45247880149112957
-0.38251274194607765
0.2720647006628453
1.4565266289641536
-0.007569553741482356
0.07646244218129988
0.29578004080877546
-0.003159563640472158
-1.7596818331475164
-0.09388605218347279
0.6661806539828798
0.015755487411990118
-0.15070535430366278
-0.08847271691131574
-0.09320305055054076
-0.3829376457814122
0.5307521602478552
-0.07544004311962213
0.3114764469425105
0.0649354531509474
-0.02911343694984767
-2.2462443878227356
-0.008685630417332108
0.10186889431670551
0.2885382581710488
-1.7609853954778238
-0.009407992813461968
-0.05388041415167604
-0.3057289310915895
0.026884408319914756
-0.003200952201768395
-0.17643883605900598
-0.07267690501329696
1.3615499471291055
0.03785786294118513
-1.0227701080157927
-1.029170792068728
0.07928071250053623
-0.007105390668474407
-0.2547411526781777
-1.8145799317508458
-0.07002419237729585
0.011861087776270002
1.0981273620995575
-0.054219487104317156
-0.005364939686806419
-0.39489490142078193
-0.936844411365781
-0.7939639618867755
-0.7058473517914655
-0.20159814984987903
-1.7566733507168986e-05
0.4891560163785518
-0.1603815947781163
-0.011676385289811653
-0.0025541542413867837
-0.07679854634422034
0.0001796276956537112
-0.04517744428840928
0.13988034543491853
-0.12007566768914664
-0.18183372004384427
-0.9800449211422164
-1.4087686379296174
-1.0505895207746163
0.20766309593611748
-1.442660488340607
-0.0031644339824396465
-0.00011987192503843659
-0.005562639946312655
-0.011534410819663506
0.08634847387800935
-0.044002611297324655
-0.08813734551979738
-0.008370368106392686
0.49379426180728975
0.0001577395972351588
0.011917498959594607
0.027101657623879165
0.251732975673192
0.7051078353605235
0.017552096752431492
0.9877578093570765
0.0020398482702992733
0.018376303428599382
-0.03369490114198978
0.2855024547025871
-0.5681181687378627
-0.1610705367583481
0.20029843578960843
-0.2533384943986934
-0.13341835367705798
-1.4460930285020972
-0.0757866278290906
-0.1338260590637024
-0.05846566495810005
-0.09441856790409574
-0.003380664414089537
0.6464128983454962
-0.009152055675417466
-0.12527425212306587
-0.1805256301877365
-0.7024507102627897
-0.0028206349425995967
-0.5440093624754786
-0.3147760350801888
-0.024780679216793448
0.02232550888054231
-0.05437337397355938
-0.0023656263450259132
-0.11002464858754052
0.5042189294540816
-0.05896562629583624
0.39631197038289406
-0.21955979232210018
-0.007434690123419177
-0.0021602791659210718
0.3557707707773715
0.1700981637139055
-0.2711908218994602
-0.001868159973683832
0.11100754771362793
0.7498963325087254
0.2691909195119187
-0.5690708883115364
0.03273878839639339
-0.10413583106509298
-0.009392891034634024
-0.5486756790443328
-0.02118019121457126
-1.0216117933796762
-0.771389107236123
0.5465001623379865
0.5170380442100202
0.8590607855616109
-0.5481326856381535
-0.5710103774905066
0.022932372924950612
-0.005677016011367658
-0.00945389058428481
-0.0680617946139963
-0.6674349991223165
0.029395281307335756
-0.16300480458936667
-0.045068898372604645
-0.07560330286873083
-0.007701647393020626
-0.0026620427659568174
-0.3417986649124936
-0.05661472333907546
0.35266522424688956
-0.009941827276507427
0.6029013647650892
0.6898148370074488
0.0006333678901361158
4.6554211452160525e-05
-0.009956963327142184
-0.003364920898038673
0.03980213752092454
-0.14051268487779572
-1.1269001968692491
0.503809372364604
0.021300200366642714
-0.025534761901640304
-1.038655162772215
0.022587200540610083
0.19115675296960172
-0.26003725207236017
-0.024473756768513346
-0.051860848789442825
0.02741370916706161
0.031977074057135124
0.030707728692235228
-0.012615949504768225
0.02714435640416699
-0.0042188730654470225
0.12237137038166997
-0.0013373316372399843
-0.05139366855541911
-0.0014627857365071286
0.24768738823581957
-0.08719186118970344
-0.017505147857314024
-0.08673575869656414
0.0013695067891049176
-2.1434784568494236
-1.058328352337534
0.023483625997917222
-0.0056627616769361466
-0.4787748671135479
-0.016303737809369362
-0.06369125640045711
0.07027488674261863
0.03094295105224896
0.7057015435415328
-0.021086861034196182
-0.005128201351788168
-0.21380976295513787
-0.004173625680683487
0.008860274086034904
-0.19222152960150143
-0.012355531870336155
1.3678316986244061
0.10350536511198406
-0.6279619660966483
-0.11187765236975425
-0.2984369436694609
0.0019393221736825183
-0.00902974038453399
-0.2870252879634929
0.008607109633489572
0.094379511342629
-0.9508599121057486
0.11157987678649171
0.06752768219546423
-0.09409607665309412
-0.07249555683225517
-1.4980735637600946
0.46566840364123074
-0.0011836453401318338
-0.0053087573230075685
-0.04482441301932382
0.5107277161348304
-0.014089402984851205
0.0005231593209676854
0.5514783375227492
0.018089868967146778
-0.3596306121871193
-0.009796981470938793
0.6617405308673018
-0.0018420927793176736
-0.17893181848888867
-0.01427220152253424
0.0012130976846536335
-0.007858341722477487
0.09234276971657283
0.16734030645599643
0.02980070726750876
-0.7339351912424272
-1.430850989248292
-0.003937678022709267
-2.0875515333382824
-0.005263703761864043
-0.004252451048537511
-0.12702232043534115
-0.6930268883715229
-0.08740565428717387
-0.04760567047319209
0.03497693688913829
0.589259060436409
-0.5576202902595184
-0.32521579078314683
-0.3541284051686428
-1.0055758775890742
-1.678415711987887
0.0010784410988226066
-0.09893217118707934
0.11399089736563689
-0.49737436454828926
0.16139590506785692
-0.31662471228453
-0.06673430937175154
-0.4473132272062558
-0.04103667458564904
-0.32763114737778243
0.2700044236215114
0.6327870600085526
-0.5079078957762374
-0.14316025436335558
-0.49635601351197506
-0.5243150757052266
0.3275938273184763
0.02566101281706513
-0.09594197240667274
0.31382739165386786
0.00012062427018480876
-1.5557084266419536
-0.05699526860173425
-0.010972159222584077
-0.008599757454052706
0.12798579538973248
-0.044946062192460376
-0.008135394151151342
-0.0008633484175271125
-1.121703542540184
-0.21812376976075998
-0.392714657375484
-0.0565782877155694
-0.26565748014198226
0.027376974478330415
0.0014485323210839556
-0.1326985344069805
-0.04488456994212708
-0.08081974458924863
0.7987802536139758
0.0016260106361573469
0.0029177986944307816
0.24261987560571083
0.7270161842825202
-0.169423520331364
0.07194760431795133
-0.015500805889344308
0.9708226761046219
0.07883337363711333
0.09247942345497802
-0.000756951459354458
-0.0552255076714567
-0.010940857066284044
-0.47506829018731306
-0.904203325809259
-0.6922547059935653
-1.48168592640425
0.27231607883078873
0.021379827624664016
-0.00749152846897896
-0.044694304112703656
0.5745118295733859
-0.009495934584882801
-0.051366311521528894
0.22379836118557028
0.005574182603627754
-0.8494879589258215
0.0027387756634938473
-0.6747623112844352
0.013755660678499749
-0.26775723185976436
0.7508080062090543
-0.004877840729297676
0.1955778097091919
-0.009680105407134402
-0.08666988364321775
-0.6169382856122512
0.037012710785971736
-0.04920980261678062
-0.5266708909065709
-1.0472162347560336
-0.4064699678396749
0.2868627800585715
0.13640779561481448
0.9537909824636387
-0.39632363884742583
-0.11350761603366341
0.022550454175012856
-0.031814596018904684
0.03524614856097021
0.17664387687816246
0.01668480706064165
0.25602953674152806
-0.3661802114884771
0.015042700582413205
-0.008503620651656397
-0.004685873039959855
-0.012083928942270334
0.49738249278574226
-0.1470608484324779
-0.2878080991471716
0.023049925929517285
-0.01430991249529735
0.038799262021043626
-0.002991229002038838
-0.05088077323498433
-0.0676661341902311
-0.29922646766306565
-0.02228720109240492
-0.2256255745366091
0.629240787980444
0.013519425845011552
-0.5784739377817906
-1.1012511140778305
-0.0006916230807000097
-0.004554856045397045
0.7648876882379164
0.3910857660377808
0.24702701685903705
-0.17809496283536555
0.00858062346493652
0.027115629083326456
-0.047307956149513684
-0.005875831873968551
-0.1279703853213137
-0.006171687897315548
-0.012641660836504897
-0.431188734629408
0.3614768845188077
-0.008544790495508199
-0.08532299348538873
0.040626944448845376
-0.2087111525578575
-0.2900695424455861
-0.04870880531205287
0.024805513144146484
-0.004058703105824059
-0.0025091800771818032
-0.17733263110008934
-0.01442543124466841
0.02727092679747091
-0.9424681556280623
0.36763651062890024
0.42841646719870935
0.6196943872169637
-0.735060817256912
-0.3480362211539391
-0.14013433793924987
-0.00676347157143267
0.03708165372854693
-0.023448620816406692
-0.05300906756390322
-0.8365406039060607
-0.0003475379615801418
-0.18120798122353785
-0.5505854970791193
-0.001656683723134341
-0.3223731355103931
1.200606230096666
-0.6677272593579785
-0.2548902815633607
-0.20949110117417552
0.024412143123457946
1.4062492064555467
-0.0592147433143874
-0.0771869723068513
0.20712252974430173
0.0036474482794913595
-0.46209139926806037
-0.7523743134180317
0.013161261540194256
-0.0006327553836871167
-0.00596847930435386
-0.07612408582001527
-0.43364256567686943
0.002931215669046855
-0.018160007937251456
-0.35319091873842606
-0.061062556017501005
-0.16771884528491118
-0.6493523880512692
-0.8518082740394726
0.045460756947217455
0.03600220587761246
0.03729448867496218
-0.004004900741600564
-0.24574100461550172
-0.18371799977649564
0.1200407933225892
-1.2450288029161884
0.04128658846880388
-0.06036921592496575
-0.41769453318281946
-0.018044846343186687
-0.020802485520282053
0.6686936093819295
-0.003572102377573901
0.024844883475349355
-0.010062005162557477
-0.04714104721592748
-0.005522797143070383
0.3066720324606167
0.2547204991281563
-0.6640917508643863
-0.002261633471931822
-0.009860686232363382
0.24068767685262107
-0.029349680261370345
-0.9865217317070326
0.10076649057264432
-1.1203921827227097
0.008199630679903232
-0.6557892983946378
-0.0007015635445873505
-0.4831129486258589
-0.5470699860166471
-0.00809474676803231
-1.277450576189677
-0.5804700796247326
0.12379335360509162
0.6529080180674025
-0.028206330746782065
-0.07433805943458548
-1.55843268852289
-0.012255742597454962
-0.7323163062716308
-0.008449443868477641
-0.44466447398629444
-0.35052290437609174
0.037039034658365416
-0.7078178953545644
-0.49409110352462404
0.3322231578404248
-0.9598143275241605
-0.0882714744668711
-0.003712928859723539
0.0011106148513750245
-0.00727219607908167
-0.007203774374316851
0.016219366053060482
0.005262557392900067
-1.0504156955057427
0.03194467146073957
0.2463170429098951
0.3445847479238104
-0.15264950482342146
-0.003407140154309174
0.08487231461655237
0.2533963214914908
-0.002886465845255123
-0.35094079907554876
-0.03683082300960376
0.8117019901062624
-0.0071433699132940395
-0.2874203840700347
-0.06101386011173093
-0.13537475138505675
0.6291195898679524
0.003850212664429862
-0.19296845336579113
-0.1029509949678303
-0.28130378848864024
-0.015365109940769155
-0.4359750080729027
-0.5610985128122494
-0.09254147485991908
-0.911761314139286
-0.12930440381423605
0.0038208170620158185
-0.7705752895648451
-0.01300259874519746
-0.6317014293227046
0.34054644117203
-0.49213671301353085
-0.30101091370368405
0.037304834330873865
0.3020037906980888
-0.14616861983669982
0.9811311532532667
-0.009880190355617824
-0.05716424506989067
0.025792573290427664
-0.16360880438729436
-0.009620193433994933
-0.1568341716700829
-0.2685257188830754
-0.010693792137482196
-0.30866623231883306
-0.019678671057946625
-0.0038548273863353096
0.30657338110772997
-0.29511239673756895
-1.0227495920928165
-0.05832216528386704
-0.4685219738350684
-0.005158666256271095
0.02351531483286914
-0.2920755495593201
-1.2324804419891138
-0.6273174266353677
0.3282346054388211
-0.3012085264147716
-0.7379322973637632
-1.6088094398293578
-0.3697322999470436
-0.007092856465839945
-0.0018393762930345038
-0.4270746814647832
0.022489250650742594
-0.0026806788824831683
0.015716108759735413
-0.09916548551751286
-0.028967176795508906
-0.04818106870370121
0.5823355338395309
-0.07336158543511538
0.001576233559647121
0.1736862843675328
-0.08787592466486539
-0.2622843569777213
-0.001511474945261523
-0.014177778510256454
-0.09472783585783409
-0.37868786313629527
-0.2821199084493459
0.1478164841899562
-0.008285371565487198
-0.4052645908479881
-0.021176531349089606
-1.4649580881760504
-0.010308388971600326
0.06516739809736864
0.07234877721838251
-0.07267494047654145
-0.05943129631628779
-1.0713868925647554
-0.13338610139317006
0.16730046597487527
0.037164094457723805
-0.31573355580834706
0.5804755646576035
-1.6899049366318217
0.49412072533430823
-0.7458633648276033
0.022889703447392964
0.29095151737034364
-0.6180514621613759
0.1552894037084324
-0.040488944926734355
-0.052769584029274355
-0.4287944588435137
-0.10178637780897487
0.32872500110634206
-1.1797978255724884
-0.004826735670192626
-0.021157607901698957
-0.14237104751308338
0.020063680163740785
-0.0021598554777237
0.011676673354872512
-0.9365548601990709
-0.008547376403132226
1.2630745363856752
0.020074861757036752
-0.19768551817521016
-0.08182723136513081
0.26214463742183364
0.0029167600494809714
-0.08180868308189695
-0.18751191644315612
-0.06751761405651033
-0.5015186369243984
-0.004439556133698845
0.17915360322259852
-0.19621727789683005
-0.6198788177697871
-0.1750607441237677
0.5473333248919783
-0.06330178174379357
-0.03753829845358914
-0.3280302035011996
0.4272973179998063
-0.008451530229693666
-2.0724725209278896
-0.0028225354322747027
-1.745511940065125
-0.17274057328067077
-0.054893041825349154
0.1731484039464692
0.03639956100621011
-0.004222150688236111
-0.015478794392854427
-0.010094471805422115
-0.008076613821611208
-0.7585564137735914
-0.5289074078987557
-0.801173738854563
-1.1337856563218103
0.02702917754239805
-0.175146338960098
0.0030827270640769863
0.7595341180234991
0.38838277309653174
-0.012725727808744251
0.03517944649096192
-0.03208427940399152
0.09865689240101462
1.21998285340401
-0.9952545767797919
-0.008183624576441385
0.003973437293113179
-0.17509540426714035
-0.08650690072088683
-0.010742641303313719
0.1176140804005358
0.00902752129273245
0.3634908010298609
-0.35894183651183975
-0.4594515967642192
-0.02236376305038936
-0.04054443187951452
-0.586089130053258
-0.009813413408517392
0.5774445766451369
-0.009344637016275841
-0.012319119006111738
-0.0358529063793645
-0.0005102389779919628
-0.18627404532811917
0.2600979129707009
0.003331739892858733
-0.0055559324212013745
-0.023077443038042128
-0.015965791241564692
-0.006299552061069465
-0.006539511493256235
-0.0072726945861934286
-0.0019879904692508828
-0.028198173948115274
0.252039307303218
0.028135219636611947
-2.3829808374567882
-0.558128984765521
-0.6972872885968698
-0.05472920619148998
-0.09702009886299791
-0.003381872198418893
0.03458318356789985
0.03661606535667384
-0.007427900812434248
-0.01137024014797983
0.020022370129678974
-0.23774545847550166
-0.8954419020317157
0.11385319324761625
-0.03728698272760982
-0.002654874323068315
0.04211832777473834
-0.053695872833920265
0.022590217915320177
-0.005058112944373591
-0.28148464323931405
0.0051798009205805354
-0.038595637266422435
-0.037846138041507535
-0.24251837603607163
-0.6334177454897976
-0.00837803364718209
-0.02679091450754679
-0.33991451878837947
0.26654515335491574
0.019711133682467557
-0.016890614427714504
-0.5935844221333524
3.503187933889286e-05
-0.015450186891971049
-0.1332593610953769
-0.1856474752690968
0.6002802688448607
-0.14862808455845417
-0.005132640869206012
-0.0032882779610231114
0.0025323459294189473
-0.21264645893793305
-0.008698802669049469
-0.07131503280668938
-0.09323624672347693
0.23581036593723004
0.13318802541159716
-0.003071606669045674
0.1472851473800038
0.02232804927129376
-0.14649920987831277
-0.29289701289413334
-0.06317096660124316
0.027234501990761332
-0.0064896980316719146
0.01806588271601332
0.03527232863028366
-0.4539403514252525
-0.23445897078711378
-0.01218673071810252
-1.0261885726563618
0.6790964716792098
0.03597673741794038
-0.0018744618003652504
-0.6577739363515496
0.5267477758616645
0.18388392337897605
-0.010591745827227904
-0.9282284179340609
-0.07406414164540175
-0.611216853980925
-1.031269207113385
0.03323911892962032
-0.024481728981721452
0.45293345303037397
0.016563696343045567
-0.058617097843586395
0.5980824041191369
-0.0007564806800337867
0.8764911212611864
-0.42048431201969433
-0.09190842174539564
-0.6644952030801901
0.1657332319593108
-0.03770896163599258
0.007737805195341905
-0.04056532381276584
-0.030889227871697546
-0.6017625985570006
-0.002347783685412616
-0.8213437654065452
0.12645891631795103
0.0281593326664161
0.023310678062104552
-0.11492792290642105
-0.08010695454922208
0.02751742653424646
0.017850403815896698
-0.8670529099600779
-0.004845696536411377
-0.09558570473872531
-0.048076864047251054
-0.6046293061580891
-0.4542521630254022
0.26661531189544196
-0.00404339180030374
-0.01502267347935586
-1.3515427885481948
0.18211775501263552
-0.08998976808853844
0.1300669866692902
0.025422411211717965
-0.4021095506960279
0.27958877341401955
-0.054462216105832364
-0.02252317551411655
0.25215384438452926
-0.4263119178516328
-0.010655174082410832
0.027241764607329876
0.18262616470610915
-0.05883688682888571
-0.010388584364521912
-0.05536854759073729
-0.001049202146924825
0.09303715430762838
-0.055908622577790834
-0.6564758653599019
0.06609492497134592
0.24070080072422276
-0.060895906939839484
0.09858366440711529
-0.008853993674449475
0.0009809709379317705
-0.28694019222864725
-0.0030324929728859132
0.8843577552070423
-0.041134011748868694
-1.8561049493810544
-2.5790715485274083
0.02234300517282092
-0.012923187708383185
-0.7078836148548759
-0.013428966987463466
0.029734409178070426
-0.005425693764259514
-0.7386651315446707
0.022683463569622524
-2.029538903615616
0.06768964426376248
0.8198460290533032
-0.5384963904697917
-0.33512443686464327
-0.005888013101830286
-0.01255667921242757
0.0018011386782625792
1.7773921019711918
-0.2248542243179189
-0.003671638848174922
-0.006321871237717618
-0.23304223023376666
-0.07422145972578396
0.9681546617059044
-0.014193021600190247
-0.09238943615018975
-0.4909254179586622
-0.0010807985117995333
-0.0173909113694175
9.661090568715284e-05
-0.9614171050672728
-0.2105499384334662
-0.029263450818788006
-0.0442868545916314
-0.005289908092129618
0.389719380455799
0.44298382325146873
-0.005564213943134787
0.27539248228055035
-0.010125319835498999
-0.009118507718956451
-0.8217362851690052
-0.2830940738243939
-0.27427188949009046
0.006482973064614917
-0.004442516321316092
-0.005316178691851141
-1.0104522150383655
-2.4741201887593616
-1.3283366277043736
-0.3603907158531091
0.03850851498149142
-0.0021657596530019526
-1.6060158147843075
-0.007832688191185875
-0.030828243188925963
-0.308917748313018
0.15503058733167754
-0.008436206130458935
-0.0075104313511472915
-0.03484662871639573
-0.5740341015606512
-0.7282380236189131
-0.020169908624540687
-0.000347432108306485
-0.0017245470472901517
-0.11711032718908555
-0.00958652622575386
-0.02953165285924186
-0.0036250567401373457
0.050103227798123665
0.14190150932421358
-0.03448605720778297
-4.52317024450283
-0.7505598045426359
-0.465784866428705
0.3729654710404728
0.06591201339622631
-0.005394184612233618
-0.0016021899502707744
-0.033724424883122134
0.0873821754697331
0.026351738595539364
-0.006516153644793011
-1.3506167980461319
-0.16391420983711355
-0.07243667740886292
0.025421389545087214
-0.007918491026306826
-0.2717548179909888
-0.47151594631973215
-0.009363959156686972
-0.04255328402652937
0.26807122874822836
0.741765520466563
-0.0013677744089234081
0.12060235658685226
-0.01768853966330825
-0.39719754884451963
-0.025027924127376255
0.0017266705702340894
0.0922638072476794
-0.02919879636296566
0.18730845645753658
-0.0031856598753203062
0.13689063102535742
-0.011287128451609545
-1.0637182398377125
-0.6053479406923663
-0.011325249419556538
-0.007938165676207714
-0.01936372813402705
-0.08044181350573705
-0.06593765047956865
-0.012037143783701515
-0.01341946246616902
-0.017436034244375998
-0.3472178667020553
-0.01386050871687504
0.2273133817938142
0.28970993134648715
-0.6690725241340931
-1.3260080254459028
-0.014255240871558918
-0.3826949300640052
0.4513606081257265
-0.0023800611798794787
1.0187496134015852
0.0015650886890381482
0.06072119991293193
-0.005852987360602804
9.329426958442754e-06
0.000398378962615525
-0.14697439435831575
-0.001262108351233304
-2.1056274781404065
-0.8785485444921896
-3.1711139050730415
-0.04769351969893085
0.4460201976590533
0.28875867786167525
-0.0007684082109771505
-0.7859643969413702
-0.05599311639063052
-0.4763130908190738
-0.6313439928038324
-0.04629443941563799
-0.01611960495953384
-0.0021054603750210506
-0.8774991724723247
-0.5782371780707967
-0.007234552978105358
-0.015802126787942246
-0.0026622700645857677
-0.14835542395820545
-0.007817904869110244
-1.9360261259025515
-2.183617687399889
0.3298320008877853
0.447618028610286
-0.08536451773914754
-0.0789962002747592
-0.0015611121775424477
-0.09678433596719946
-0.005432409178823097
0.33397316050206655
-0.15983528571218614
0.6766337875394639
-0.003582023342380331
-0.045407651828156495
-0.003206901543389401
-0.2794996813198243
-0.00042890893720140777
-0.00953428826682256
-0.003586538371980541
0.28214936509524
-0.009326760716705823
0.04735042282374278
-0.1587714393057792
0.00713394630170665
0.09626342679263303
0.5485067500460884
-0.004316682911676032
2.1418926689333932e-05
-0.0491553472653558
0.011918664083995528
-0.08284884906238867
-0.49935279264996124
-0.002438297467518426
0.12236183760235388
-0.16936583802190722
-0.02527091911574653
-0.24841937040081752
0.8327249197629478
0.20598541071350607
0.002567209428675157
-0.020372483625759625
-0.0769576771691709
0.0017463519228092142
0.16072411257393446
1.4134441771495556
-0.004180121966898429
0.0009216516492559866
-0.0006738035576213855
-0.009055204226144663
-0.005828314662714333
-0.02849431984072399
-0.0033786594701327513
-0.008165301895300722
-0.0017815127989959786
-0.6519121722351082
-0.006919782146195039
-0.3988032407485214
-0.003407534647625958
-1.1963510462005091
-0.45818620526049886
0.029912122042209683
-0.006945706562007859
-1.5135083513781185
1.0170751257988369
0.17065907527831398
-0.6864589293416897
0.9495259231409722
-0.03386576499949256
-0.0018605212922104385
-0.0052182227151583585
-0.018509415827717302
-0.007983850946322956
-0.3015916066541511
-0.6138714855510027
-0.11096700441380658
-0.03892528009626188
-0.005332158194808629
-0.2051031985122971
0.3980447198689256
1.3323675728927322
0.02932362005638771
-0.36301669051318597
-1.862795218117495
-0.7271395334200315
-0.09336055284965934
-0.007897822156616826
0.12285380552894681
1.244431443250212
-0.10370316443356932
-0.5060124397584906
-0.004293665623496913
-0.025462937218144927
-0.4401835107208464
0.0031475971226371208
-0.0006978452622804626
-0.0026566676174682932
-0.8067942868617821
-0.5054834241116801
-0.001798449887769354
-0.017178236427504896
0.5132045720456025
0.0033180559048407677
-0.005650364039885095
-0.03298419119582886
-1.2197447474974068
-0.004597922422334105
-0.12289050715913634
-0.004356640272168745
-0.0018026164830300111
-0.23106876107584934
0.06625302600832965
-0.02650024061219973
0.06795647117288889
-0.005998111489904033
-0.613747743956007
-2.814779472917219
-0.4768690699025685
-0.30771304869226457
-1.0293416485161861
-0.3736455388476933
-1.1638146012247779
0.00436079828483768
0.20024830670540802
-0.3819759340324714
0.18634451072191877
0.0029434058306960975
0.0013248142448619164
-0.03651276241551953
-0.0034080251051489922
0.4642152486207366
0.059120076111798835
-0.0046803448261369725
1.5786775143543326
-0.0018807523582308671
-0.6425661188194938
-0.021254095773738102
-0.27957284314738545
-0.09574453382307536
-0.40551854548213484
0.0006365868493947687
-0.6614533184876901
-0.27459232036626935
-0.31067397594332347
-0.003696918019984068
-0.046437901366002954
-0.5369904927970814
-0.008515353000606594
-0.02331185966083134
-0.075512666032859
-0.03213283244433912
-0.8503133164537029
-0.08742655164322925
-1.2914430737544815
-0.4370282133456428
-0.04494700595837887
-0.3165272453181595
0.01099724101162242
1.217577853873116
0.637639446858695
-0.0927051839124454
-0.7326739115978318
-0.0007831630245785053
1.1129790441315373
-1.1310694205601783
-0.0413272616352716
-0.028281046422914766
-0.010148326680163319
-0.03950221890355085
-0.3200790657447785
-0.029590886639753705
-0.3159466330528197
-0.19760823698928925
-0.009427446437975858
0.2381484438710152
0.007628981879376622
-0.031539562802555585
-0.053180963953548384
-0.046172216190198456
-0.01523120682445186
-0.19953977103728351
-0.02550905321032434
-0.8893964285980422
0.022880231950106158
-0.0028487198035519194
-0.003986593013029886
-0.1539178738776919
-0.2549872353460157
-0.020249329052531455
0.5088221425241031
0.00422636394292976
1.0866638908081487
-0.008697193267007134
-0.004570250066097808
-0.032390191223120694
-0.001017268552135032
-0.4582396287061962
0.0680455620869866
-0.00020883935010163822
-0.007637239787215975
-0.013531344045983364
-0.08206410081068732
-0.27115484498946396
-0.015153419179488979
-0.0037658545888161012
-0.4557014267418946
-0.007143696625933576
0.0016314142642042978
-0.9544680716260547
0.2417558721337826
0.5773835990276229
-0.5595100202479687
-0.041297666963919226
0.1459381634362324
-0.35989327987375885
0.0035307385355688534
0.008377217930084313
-0.26838020783050176
0.018236392459468207
-0.004936723817665619
-0.337431867783814
-0.7560425389666235
-0.027216223109002884
-0.9030680600916711
-0.16855214145828984
-0.03280897344824716
-0.06597128567979309
-0.03094643828886714
-0.6164663634493202
-0.05468874525911611
-0.001555206480615829
0.8939616220882032
-0.0037432127109934266
-0.15775184088880126
0.00012814324299886132
-0.4668675322540283
-0.019727800344503083
-0.24330216880602012
-0.10300991003479792
-0.20167944213919525
-0.06320622284889296
0.13449872956044934
-0.036654890051551044
-0.0199764560079666
-0.002854882814633669
-0.011571666770884902
-0.8901089482598628
-0.07231041750945932
-0.5231300304709297
-0.4852621377546266
-0.3608974501688475
-0.5716461727274399
1.0753644193935485
-0.006365712894116593
-0.003182627478917335
0.13261472995582854
-0.0012789088467836207
-0.040110699946132033
1.3015884345223256
-0.009981006722358224
0.3539359733948567
0.0022894367758795747
-0.6245558315528695
-0.026193673522293293
-0.13688151924436215
0.15091353515862757
0.4368994456094368
-0.04416072980732659
0.22646001089140788
-0.009285367758457348
-0.0012089301186152628
0.3398921955781741
0.2690820040784282
-0.6052294435470703
-0.009895875009726862
-0.6093523304950267
-0.1941547941288065
-0.005933594105320974
-0.0019185281036549992
0.6919835462387184
1.4595678187817767
-0.2814422294182786
-0.0035768852839787716
-0.00014358164669854215
-0.8643924895706578
0.04475989237827625
-0.005950332467349388
-0.3332035498875892
-0.019656800469021858
-0.08025140672435721
0.1605223982373778
0.7077340485044236
-0.021651348296471327
-0.9062481060669455
-0.039951007417320585
-0.7917244311297522
-0.003428247263621304
-0.0010760460452518242
0.9963381974619233
-0.01733093103120144
-1.4370922543724622
-0.018962428634386748
0.5798938534444079
0.09759581382077882
-0.022235887831036815
-0.15111407175715347
-0.06771397854172173
0.5101161945188716
-0.2922074954679303
-0.32037654032439383
-0.024671057916468373
-0.3273113408412882
0.24570960761606417
-0.006780292540585867
-0.02579143833918973
-0.014288383055152017
-0.24413192859850846
-0.12348039204328143
-0.11591288428782712
0.0039325061314154615
-0.015020025203603677
-0.01580704780101925
-2.7239067109256707
0.00442703736811646
-0.013111752336347414
-0.0007966563667352923
-0.006675616062766088
-0.0028666306419991463
0.00035347974966736776
-0.058697835162303945
0.0018447618459602629
-0.006704758461250197
-0.008599945879759423
-0.014831287654597323
-0.6861240513780517
0.4885737305740902
0.180550726602707
-0.024520278654900605
-0.043349881895749634
0.0028246467984993475
0.0030371297450977647
0.12706055441721234
-0.2625888526530088
0.6733436888771389
-0.057346689169048996
0.006709231481276946
0.6858920419448775
-0.4084330733850417
0.00910454827868673
-0.02336291595142636
-0.04760050943253127
-0.3096682798289348
0.02991674916766594
0.038781970118515474
-0.00667870165578497
-0.0188859179164308
0.13516191938274447
0.00036627440557060746
-0.009744020873010547
-1.346576903466022
1.0132229335499638
-0.009567944643165809
-0.018323151047505985
1.3433453635701897
-0.40441073820242435
-0.01311986159483842
-0.00039408968078043173
0.186455296402534
0.09696329456691345
-0.002243664763616463
-0.003967037899307032
-0.13020587305859463
0.20621228212944456
0.2701221359648694
0.34114398107604316
0.0020052164282497154
0.11771384542763004
0.7850977947645159
-0.12497196269517406
-0.5038172882999428
-0.5338094004901788
-0.13020263265105372
0.3554796801499807
-0.6520166683051366
1.455798555152881
0.29542085361589104
-0.2080474782338412
0.002946841920412688
-0.04274160293700093
-0.5536602671800719
-0.06755167742896388
-0.8463707482076663
-0.0043704779211863574
0.34559986752805044
0.00710370950545209
-0.04233246175033392
-0.2246137487941008
-0.411050999375505
-0.03647242543444825
-0.015287659703046835
1.2611068478482066
-0.00495470742076742
-0.043191714757694476
-0.0013623797017971449
-0.0338830938565848
-0.00329510901964857
-0.005135457909772225
-0.01738094719866775
-0.01596437347467907
0.04961431371061595
-9.635042971783953e-05
-0.00431273965060829
-0.1533916436830096
-0.1817171150962539
0.1387918940540968
-0.019651374713993218
-0.5151645661527973
-0.5232620202129502
-0.016971175901262733
-0.28895326702981117
-0.44792766509089216
-0.003014235292614072
0.06737858051447158
-0.03735936942248676
-0.0034200206425721354
-1.2721947810395327
-0.8495887340244432
-1.0371446988503996
-0.03898836163527119
-0.1810586178062425
-0.30003566018151906
-0.22621391795373347
-1.7458741400281763
-0.009324332836510671
0.0001961327891150414
-0.4300378362153912
-0.005626844116197876
-0.39676630863382506
-0.0018070858405155013
-0.00352675707125071
-0.024266158561388914
-0.7038784528469548
-0.03478710563363881
-0.05415276471031653
-2.092097040582078
0.35288964580302873
-0.5134678753941264
-0.014291639335706784
1.1412680354190774
-0.046767676975188126
-0.7017992232995454
-0.0093966976945378
-0.01293674765862844
0.1679403402295314
-0.016224272487430143
-2.419302647653008
0.3553704702932392
0.7767553666843753
-0.0007542675342784524
0.6451129451475597
0.4203122468099756
1.1726692766467517
1.1996025078942096
-0.015935419785684215
-0.09796093200930445
-0.0045273644628598675
-1.1429983571840796
-0.1867273860867175
-0.6222102022592816
0.6444453002137207
-0.003785533020498181
0.9982325845249838
-0.38302008794101433
-0.06074940405956715
-1.0501424434509883
-0.14804562205232086
-0.004277716117980016
-0.2695459933093693
-0.1416520763711373
0.06560092985180038
-0.3899857595140789
-0.0051900517111700215
-0.043033487628058996
-0.07529634249331747
-0.0006595936010203326
-0.003289747705610281
1.4447580301583318
-0.01053411240197727
-0.009457011739458935
0.33465094232920267
-0.2266476882252287
-0.007597078452802482
0.5158266130300867
-0.43260869947414227
0.4467393505972504
-0.03855349688867025
0.007353315796801692
0.3146815433225785
-0.06060737853467696
-0.002269486081747516
-0.051081751011456504
-0.04257009823370099
0.0015168753301200426
-0.19872859866295192
0.3793347473715928
-1.2324129419456715
0.6503450616012552
-0.01604487141813635
-0.0016776287394794976
-0.04448635665569196
0.04735709083923233
0.03225065565803103
-0.006041218911938109
-0.1914188669676386
0.04141998115504601
-0.005621726240656144
-0.00828442126283125
0.1833064763804908
1.1448284443857537
-0.031768435716424195
-0.03553696232583783
-0.08251632082906546
-0.0690044645252666
0.08460568869801832
-0.47859923414529393
0.7617739790696378
-0.0007845914871697036
-0.7459314134934183
0.9210819096929468
-0.050688436745253015
-0.037237291497757063
0.567133651761304
-0.007076126945475364
-0.9085442796432994
1.5360111027830012
-0.008498726793905068
0.13332000987106
-0.003916076746938736
-0.006530004903808795
-0.6390428009748553
-0.5264984988220593
0.00536231922924206
-0.00812416415713154
-0.6572215244167096
-0.038728328138239544
-0.23403711309833425
-0.04144945211155111
0.0017206265214264722
0.1147870766348923
-0.0032533880201616144
-0.15145102281162412
-0.0006899267772734948
-0.9919389112781019
-0.4228962038974986
0.006932267141329846
-0.0011866685249922171
-0.01430714116785851
0.5440966985111307
-0.21953285101243608
1.9413338630858183
-0.013626018052798014
-0.6952795929854891
-0.007672331989338077
-0.006731430169344245
-0.0035491026425150236
-0.0013039115236404529
0.004078124289291124
-0.05250738533791091
0.10364777441673252
0.017972305519845994
0.02187589831284478
0.0036057517880099216
-0.27752225067884356
-0.027662148094872562
0.33296086249511403
-0.10000784071399457
1.650819870923262
-0.03168883833407995
0.0012777919338385654
-0.47242150417843143
-0.41044957253109826
-0.5840040049940095
-0.5108682658350512
0.3748472946183253
-0.01803051377702322
1.0850601138470162
-1.2081715645490925
-0.005156278247690343
-0.000763256597136399
-0.18084757995926318
0.002437344484818101
-0.32025685376938196
0.1722006795852008
-1.085357162041085
-0.005074718992990206
-0.005269442848307412
0.03948326293409407
0.13475586519962998
0.07689486611742528
-0.46781634470023237
-0.003150317614669826
-0.005186279863638315
0.006076379123015911
-0.5597641707743461
-0.22182244962228476
-2.2356772974494494
1.0949967092306658
-0.018176678831109433
0.0015249143174576698
0.08414294717942397
-0.0003394877284909963
-0.006839444488044792
-0.05077536160264331
-0.4455473350320499
0.2786039185188633
-0.2515286421969375
-0.0034944240549035074
-0.0017663230830704385
-0.10244744076535083
-0.7551506173446296
-0.5407653616894682
1.082655132354118
-0.03744188017099247
-0.0015593991750235076
-0.0020763046513426935
-0.010452231977960214
-0.5086218587520449
-1.2868207384689851
-0.012090908693209619
-0.9499742781180905
-0.4796611162251977
-0.0052061408269045446
0.4779626452269957
-0.005542029569512117
-0.0031450578584513353
-0.001842936219792183
-0.5219450646118933
-0.01915060586829412
0.40728296586490575
0.26981629198724855
-0.26927376813941495
0.0045405417112044655
-0.0055041306975093665
0.06915914379782716
-2.8138727436041577
-0.008052620562131987
-0.11313784241754624
-0.2276436491269746
0.15756730524865342
0.364113095273292
-0.025114293963015597
0.8545558608893649
-0.3409447418663507
-0.02989423887342961
-0.030453684011052223
-0.02360872094704117
-0.9465941464955954
-0.024146961963435354
-0.5005648326713903
0.004048103659280512
-0.019242386778170067
0.2893246641877193
0.00931511512077246
-0.3085437684677385
-0.0050516773297485
-0.5759775773491
-0.02150394296536032
-0.003511445096480487
0.2876494961144352
-0.9445587761740355
-0.6974702426418256
0.004739446425229852
-0.002314453953999838
0.0039631143351414305
-0.05286815568820599
0.012096955393280004
-0.010282450858916296
-0.007855137933224446
-0.004819894608872943
0.33279351002127566
1.5316288650510919
-0.01976509318302605
-0.0062946146793373
0.5345114952486865
-0.018062613885378265
-0.0189718373904811
0.01341834958145865
-0.06906063960814472
-0.09674230852915845
-0.05671052192254829
-0.0015154736168103257
-0.005503651151406859
-0.1698799985246198
-1.0303703195839553
-0.0170480957836266
-0.17362423233013952
-0.05845674263252421
0.004630671009140848
-0.0072751736828261205
-0.02671024889956121
0.12943103932284467
0.17008396449750432
-0.008141094065290424
-0.0032128582185976134
-0.060291244152733584
-0.4546044159020854
-0.014516653969194349
0.011795636701726567
-0.02289661898136075
-0.023985397645013826
0.13503729761955985
-1.1638622051436864
0.7041194763163446
-0.35396075996274623
-0.17376355018715278
-0.0031075150575107053
-0.7546207665773713
0.12024559412249153
0.034009180623532316
0.011540387251436239
-0.8302373560136256
0.39538409324721624
-0.0045675609368321475
-0.4806066261548171
-0.009180841388298722
-0.16953394878392464
-0.010323471546212435
0.9206983747734497
-0.09854733249555091
-0.4283673398223229
-0.053803834022976636
-0.0015002629621663334
-0.05566645709238496
0.46009282637014187
0.22634939265900236
0.1584785398080747
-0.05451047276963653
-0.14937138559789387
-0.008633076762321024
-0.0644670939764723
0.18132275484580854
0.031282384122606414
-0.009526919020764975
-0.2900045893311136
-0.008867441051958748
0.46650754777951103
-0.024247809097450782
-0.03014760515283946
-0.36018217408685715
-0.0007553739326989816
0.48821375426850405
-0.1043766164435967
-0.2500224991546825
-0.008811883829288757
-0.014804514790473577
0.0036320205002124827
0.7310696653063733
-0.04323564606950701
-0.23089675410700114
0.009908438130286959
0.12555974233153272
0.5299149420050385
-0.6105943585940473
-0.628180108830601
-0.0007104865494420518
0.12363832735978554
-0.0015572213963219125
-0.006469201702740292
0.10655456647361829
0.10735857886999928
-1.2490714677088575
-0.0491074790212247
0.07768800539455596
1.2559475744481363
0.07598975578256546
-0.005021360018716155
-0.7449743607628257
-0.017626854617465788
0.004726394607539503
0.27588902833761086
-0.002542263851984993
0.08397731998646918
-1.0101816432986637
-0.22667752462734367
-0.025033660791073064
-0.0005852569557138927
-0.02416802531700492
-0.0296780188267492
-0.03794275968386919
-0.3718126928703834
-0.006852847659549771
-0.0045141780220511445
-0.0023054108720571833
-0.00683745284792882
-0.0001390353085472099
-0.6691652988647838
1.4251496938814103
-0.005583730537013672
-0.021158321658862413
-0.041780303670734445
0.02845835446172523
-1.5959942602602566
-0.02812420035670506
-0.015112863984861016
-0.00690334756019146
-0.010141094948744503
-0.054443343982016765
-0.18921298480221055
0.4009214191591479
-0.08217564743833225
-0.23829340079301367
0.32641756636410596
0.9283001682209837
-0.2016487227721635
-0.02687368821707849
0.5844994515777486
-1.2106122826901948
-0.2484515825152725
0.024238590999746224
-1.2792045576596183
0.003046403893850006
-0.11436212119255018
-0.01136289318946165
-0.31659736572794756
-0.486911151713731
-0.06317228289124686
-0.011281771530227868
-0.00927615841565118
0.34630801419845203
-0.8389624644355137
-0.006418294213572834
-0.0339747100809277
-0.8891853459471117
-0.9163607052290741
0.004438173213124011
0.06821977745174766
-0.01748664074429735
-0.5587139625184945
-0.019086111735028527
-0.0006762912233543939
-0.0362898307314256
-0.17788301914111274
-0.008821544686248075
-0.020606738271170943
-0.24075022043125985
0.6538304087569643
-0.16105532663763822
-0.029580585239461603
-0.002824937964178972
-0.032924948666316324
0.04578726526970441
0.48769637562240314
-0.01663695988323796
-0.012328287161736106
-0.001437370838273281
-0.051134215165445286
-0.1871258833336999
0.33578950679762576
0.5335417899697171
-0.21935410798529212
0.0007900259712250934
-0.00432815084414567
-0.07399584947364284
-0.0031095654602354213
-0.009850692835135734
0.41552319589883024
0.00035285689052595026
-0.011797735573270515
-0.35599075325048013
-0.23676533802983651
0.7108151968403821
-0.6496303063257856
0.5563894577621933
0.041775078204099765
-0.8663502135474147
-0.007573230066629111
-0.007705561942646886
-0.03253621678190499
-0.7655801502562435
-0.12738307789499548
-0.004504156093242597
0.0020868457702838037
0.059587938127506894
-0.003771410382008377
-0.060396012182178854
-0.03207817487490144
-0.557577310150087
-0.3478429814426302
-0.04244699190595881
-0.006498559859383132
-0.09085334422805692
-1.7447119042116346
-0.032658377233643114
-0.056017666153887494
-0.29069320477196425
-0.33533725360858746
-0.03773990757418764
-0.0021819001482828114
-0.3731510439047549
0.1720547795877738
-0.5278190448974448
-0.04184170715231366
-0.10479281343397982
0.45645252602847286
-1.2521618594528625
-0.08963526129901202
-2.059745294082755
-0.12648756733185712
-0.01475096276937359
0.3519348024094951
-0.6087000057521775
-0.3179066116814407
-0.0022029237872684556
-0.447002581613388
-0.3211479425477554
-0.004566139131956502
-0.02984093214443119
0.2597828866278456
-0.32343911245155965
1.079362249134217
-0.2676181803240203
-0.30024283587586414
0.005264252478241285
1.071095530938249
-0.01613562529210593
-0.1953417008885065
-0.03338662142694476
-0.08295992682119256
0.23218130147450614
0.12826326293503534
0.0027953773839817513
-0.12323542710289788
0.5971526330638832
-0.007127734101748111
-0.0014972240943111389
-0.0041289808958875135
-0.040728603970656196
0.2604161233413156
-0.005385330078393459
0.0010112243757391512
0.8864690413464161
-0.008388817511583067
1.3770585909347477
-0.48537610654428787
-0.1368161420805224
-0.7431290033815631
-0.01648623753172304
-0.02438441249709721
-0.006951104015480642
-0.06804643050059123
0.4079493737901289
-0.16898397722431568
-0.6388990279734638
-0.004490446308650594
-0.009206079646867813
-0.005169609563041792
-0.03010120477163627
-0.011557474339032356
-0.10498263495790716
-0.003944493604880206
-0.016956554955164623
0.0039669991666945814
0.22304294018919724
-0.08319064945419208
0.0003901008428806313
0.006911515990943383
-0.03343697697367034
-0.13894595052486744
0.21121669585141864
0.49253755781367636
-0.1220118191178133
-0.06643664299066897
-0.12084455164991491
-0.08015793427224588
-0.032317104616780314
-0.3532914053229269
0.28066880115303733
-0.6426258969448623
0.0016514181941101424
-0.011460255233590613
0.2389417199379527
-0.020300067043540128
-0.0046463477992489104
0.002345295678138745
-0.02028718520084956
-0.8854358136635145
0.12293631280404235
1.1312526577744395
0.9810370079199883
-0.29173975957092363
-0.015756767583998535
0.00665714581699791
-0.35417158176868724
0.11057578789764036
-0.006326417761151723
-0.048214147046988017
-0.006340937250731556
0.7517186122443562
-0.014972714962091386
-0.3686356386108441
0.6937082277481167
0.056114475100120007
-0.08992296428464684
0.5380983762783321
-0.23926157789002095
0.033795229705148144
-0.5999430921194052
-0.04978460033591236
-1.0855151281408832
0.467684429153558
0.1468650862880467
-0.205853211114252
0.7233347885469515
0.00450009872706593
-0.09392409227618005
-0.2720057197085239
-0.0025579691119400317
-1.9874075216823257
-0.039452775524579244
-0.4728310947422139
-0.04132254235218499
-0.26332811182283733
-0.018510807525171924
-0.04084310749828081
0.5738442304326328
-0.15445202375636813
0.003089834886825261
0.0688355777322866
0.08902242556143558
-0.004642838693624939
-0.07706141760077605
-0.0064770709995720975
0.32565134328316264
0.007701954343123185
-1.4391876247874924
-0.007930152572457615
-0.059023303315885865
-0.12506537999589826
-0.01663710946498096
-0.0020884972190832137
-0.5297787299536713
-0.039830306594181415
0.2847342898629674
-0.0050090608484653545
-0.26819987608035845
0.7642621149106231
-0.1037692169512777
-0.004272678620405928
0.03064870105757283
-0.016724889972294685
-0.03651046551012255
0.0017897365822203003
-0.844723441185304
-0.02042740680872761
-0.0035636441461704806
-0.058509779918934385
-0.49830165057105164
-0.7166607605457517
-0.39262311105494807
-0.062342246316121654
-0.001339743414196275
-0.334023144460006
-0.4026502635151228
-0.0024645624201578053
0.0043316491377424415
-0.012398616870573587
-0.0009855538389443625
-0.023755399191289772
0.7418911918922314
-0.1048441920234699
-0.1865092518150747
-0.41373652060492366
-1.3355049946752164
-0.5851654059036828
0.18242085269716307
-0.021427549143655272
0.003690495843147379
-6.911963754460013e-05
-0.003742076009795388
-0.007314504760039239
-0.06670486184983454
0.25677514533547985
0.28416246540181755
-0.00471200740277837
-1.2338250137305917
0.003158571720831649
0.015096842351954787
-0.016703331014597998
1.1454917952091117
-0.11334444327247489
-0.07368192648578686
0.020432898882618112
-0.0029415925658779754
-0.023136039171245383
0.31394126654726195
-0.9646115296824573
-0.11153506945228676
-0.054200796668834136
0.24089780296728405
-0.6366995263631875
0.7214338016731269
1.7373334443235116
-0.7881793422356808
1.1780220366395593
-0.4972205932766714
-0.23168180931192656
-0.002272537421868095
1.2166763748541523
-0.005688597759552999
-0.2669087734366008
-0.03899623976674293
-0.2584325753997426
-0.0020467269772864068
0.7010151589806659
0.16107120018912555
-0.013482377304410424
-0.024298352053352106
-0.020818978137747222
-0.0022438067601616043
-0.05881370729278946
-0.4438160846090289
-0.02160878922568759
-0.09103902203498648
0.6027700950531554
-0.004837307746154377
-0.14293449857846138
-0.6179760740028822
-0.36995364433562383
0.44592981062694964
-0.0016631810912840252
-0.29973141891387917
-0.07457869608962989
0.6605849957094638
-0.5966036369479509
-0.002076033600694258
-0.04393798844929128
-0.0012342868648675873
0.43449132789058176
0.02811947927960499
0.004244063513484881
0.4527482696760319
-0.5948551520208604
-0.4953607894242724
1.240368183745427
0.1807644338426556
1.1076319583667906
-0.019206628037947912
-0.0009583013452766987
-0.004703840026803996
-0.0668775369778526
-0.05019844665556425
-0.014478906261777853
-0.11403598227902004
-0.010461846624894144
-0.03671816863501159
-0.004190454241830734
-0.0016911876034519542
-0.4478135256186469
-0.5047158220383579
-0.06125232728435096
-0.004227471756175157
-1.9322097362521407
-1.1378635814869278
-3.7658245876148364e-05
2.593439754251708e-05
-0.006094402988780162
0.0051548026893376946
-0.003960347100248651
-0.5344958727857658
0.7274026884166847
-0.2174964586356183
-0.01214167509512851
-0.004816408517728812
-2.358407578642289
-0.011869347081114553
1.4391580694488095
-0.3205607086727909
-0.008662691152608355
-1.716924437614845
-0.024517846581998994
-0.013095069235377902
-0.026496986073073006
-0.00025044371537689665
-0.014437275072462483
-0.002559792833294221
-0.21498201189222635
0.0002582673014554573
-0.016206267309057717
-0.000918722368482723
-0.5043038912414781
-0.011296067974260226
-0.008696814121511435
0.351565718063824
0.002825051388648666
0.730446789670365
0.46104521239583585
-0.01882029065250072
-0.0024796598976928406
-1.6385486298381018
-0.012600827221595086
-0.02176577105522081
0.016582474525592184
-0.020646279661232777
-0.60252864663124
-0.009904564437696203
-0.03654879556176689
-0.18348197800701724
-0.0027106124373956508
-0.005953807050056812
0.034780550895922094
-0.00789296222502603
0.07489674595646802
-0.7696929916362496
-0.9513348191293577
-0.11024136059041495
-0.12324359412262839
-7.82579562668957e-05
-0.005502961474683333
-0.01839330551498371
-0.032623141125825164
-0.17480011217900973
1.4011787833790161
0.49727407152115094
0.03688156137259952
0.016553131466113154
-0.031008411819662927
0.7966202107302955
0.5663882951314255
-0.0065497585825758575
-0.004051312481393415
-0.012936889300392582
-0.1522320769196539
-0.0016999086958421037
2.5068544136251056e-05
-0.37452764236196734
-0.6512775587680754
1.6723241120089953
-0.006019110793982277
-2.2997326567543657
-0.0022237693174813186
-0.051073231485068774
-0.002667155883975398
0.00010988251044495868
-0.005079032786349247
-0.7015834135584706
0.8308792382316779
-0.013328145428315757
0.15846448546880226
-0.5668874276638953
-0.004831908754779824
-1.504491099526091
-0.009456556339575066
-0.0026977425851235416
-0.42847096016523634
1.1233540387069478
0.052065869616295384
-0.025026677014977388
-0.18905196380567638
0.6317476363316452
0.1600168790598288
-0.48566380490696875
-0.1888857193469014
1.5397498107126968
-1.7050628596461108
-0.001958783983576005
-0.03237757384172118
-0.7494590866426358
-0.18257338198407608
0.6929301275891226
0.027588432608069178
-0.2951472463576923
0.7295248235108216
-0.04966968889749926
0.5072643148855491
-0.38639244603896483
0.6164078147538169
-0.7703258570441791
0.10980591960215914
1.0510477507339808
-0.2170049325548877
0.06477977142559777
-0.004795679569128506
-0.47034264531987063
-0.3115608306639583
-0.0005586406544416786
-0.5686883633002384
-0.024034118439858077
-0.009050073366613632
0.0006186146544808258
-0.006908218642014195
-0.004321859194672235
-0.005685152001055065
0.0004929582806066926
1.1922592926324027
-0.01126928293912836
0.36819528199794865
1.3571645639969825
-0.6394641556393974
-0.022590927823049587
-0.0017679641198459284
0.28044277903491616
-0.010883229120876657
-0.022694992924311354
-0.04115054194661244
-0.0014213246118012525
0.0009728106307684393
-2.644094607091788
0.1065457462164881
-0.019367072882806445
-0.21874046818910786
-0.3246201161859813
-0.2921203463795084
-0.8009743919042224
-1.2795084906968883
-0.0005657414079716607
-0.022486266335633037
-0.007353015363634283
0.0364099577288076
0.11707588004111304
1.0412287559204676
0.4162008204888214
-2.3625321269636443
0.04804091958367027
-0.004330209220203034
0.00907432775018519
-0.7871607323930705
-0.003999771056875031
-0.010730239635657966
-0.9252143909252942
-0.012627156273815922
1.1146503263131293
-0.014465044260598013
0.43138121707209204
-0.26087757195122624
-0.4750469742900637
-1.8467215039965317
-0.003575573937123917
0.5888292254274355
-0.0006075270967685199
-0.03613398098118051
-0.532883325644336
-0.005123259135372028
-0.0032559736434865194
-0.0646271880324081
0.647196784937036
0.029518485279662297
0.39427344711511647
0.08478951770343654
-1.3767475912283988
-0.1481349026684414
-0.25764729300786754
-0.015046618047831965
-0.008578161189840486
-0.009629377493084203
0.18533392673289587
-0.1413209003501198
-0.23712236166358036
0.035473412362181655
-0.07441273382274587
-0.004858831011194015
-0.002676174322476424
-0.007728190620783567
-0.14024429997967278
-0.02234781870194595
-0.1003405802212892
-0.019264778271073833
-0.018631893280936472
-0.005065078998868186
-0.002228185490285633
-0.024911411390596435
-0.01367963304004606
0.20386997448332686
-0.005075113214565098
-0.3084532679744463
-0.6033725307357312
-0.019144965947096745
0.0686345562632384
-0.5213353794959126
-0.00018883938598425562
0.003739499585968873
-0.26645959902816974
-0.6405690675990073
0.38591696145289944
1.5688616355712677
-0.01026138008273447
-0.07021358944420153
0.10821219994790507
0.004999539561386845
-0.7651679611346903
-0.004031108806887263
-0.00022833125771475846
0.09252064923982004
0.558108762553549
-0.004565364698802378
-0.03569993298075235
0.015072501197845112
-0.48423440431853654
-0.05145704504602989
1.5245159375674504
-0.001105322516534785
-2.4765662147599714e-05
0.004478229369769472
-0.049307320035172394
0.0013094891147933383
-0.015204344571945121
-0.3004874994315121
-0.7495713137074088
-0.2553629561598186
-0.027522526732923637
-0.35917490742552816
-0.18814718631506652
-0.03022810444665467
-0.0017070336210828695
-0.4667711442107746
-0.01679221737822043
-0.8508535404322524
-0.05395437137862597
0.04537525109958025
0.32099602069026995
-1.8778552484706699
-0.0009929614487780643
-0.4717590916362423
-1.460157663605544
-0.19263957734168263
0.22893659042202688
-0.5216550150309743
-0.017855997646536108
-0.6593909331712074
-0.036136492595586836
-0.008350899165559752
1.123547845706669
-0.0015972460291329572
-0.1508184434831012
0.30543420218473916
-0.7532680139650347
-0.0009257050639971349
-0.0057656518252940095
-0.030247588937542584
0.10268139807135916
0.0011542445016633708
-0.01993656681890226
-3.213137372166938
-0.8671007623918988
-0.21091579249067552
-0.9583157572977187
-0.3817040702429165
-0.09929503571944837
-0.008625150294533361
-0.0054554650189574385
-0.002389928980312787
0.23306216427414653
-0.09695858436052908
0.7780435830810641
-0.032043265447746445
0.0022445610069727175
-0.028919341619187165
-0.3635981255630381
-0.004297993734210016
-0.014724152857640404
-0.8680721190270585
-0.006880856989758272
-0.018409380766327036
-0.006100387780549708
-0.003922439458014676
-0.0036538228312374063
-0.2193486776998373
0.25283991570088626
0.04085132069035045
-0.0007475563715240248
-0.03478164019832784
-0.26161845704987113
-0.008873204874113555
0.02666602451854235
-0.3912287460185465
-0.39616466082301355
0.006877236434514007
0.7961827283458182
-0.0006677934637908114
-0.02269009828460579
0.24573717220537353
-0.008277711790024626
-1.2168158814622292
0.7137026055440305
0.0616258357549693
0.34818450712122795
-0.00543763918759254
-0.031712543101739925
-0.1537785231879714
-0.025211880307524887
0.3694686043805852
-0.005012614988737718
-0.16601530122953184
-0.31523391978783377
-0.0066321621153970865
-0.7476874722354171
-0.6197252091700333
-0.282330399109166
0.2160804091253575
-0.03780833981059161
-0.002516454021888451
0.31631987123428207
-0.004692446886531604
-0.003892454318945818
0.015749332809856298
-0.007357804183868291
-0.5217561094261957
0.0005327040969706754
-0.07458309577510427
1.2336811500798743
-0.03391364189678199
-0.001080650764427118
-0.11863582527994362
1.1286758764150626
-0.0020943982245698036
-0.12126067270885038
0.015656517676260112
-0.26887692272800773
-0.031686764902896875
0.028753971417219137
-0.011328437660272939
0.01523082620669572
0.0895262552734234
-0.012806803509058965
-0.18976950498551978
0.12735076837340187
-0.499678070868982
-0.007435146473199151
-1.008564590487736
1.023436510042944
-0.04155605164120493
0.24773686487821525
-0.17248516715385764
-0.0005098165795179501
-1.4426807360199516
-0.010389277400751393
-0.6902989709712744
-0.3168922014566052
-1.2878606870523612
-0.07969309529474093
0.004355430551037995
0.5813067567604597
-0.10688550972451027
0.1763233275296698
-0.006586718858415078
-0.30515463987276886
-0.5750903727944148
-0.07734155952861693
-0.006798749719988314
-1.2760888711399165
-0.1270571972481866
0.13965982415598954
-0.6752221960217196
0.02445232988696584
-0.00046069261619435716
-0.04772734345831065
-0.07387237819164691
0.05832077311377199
-0.05617606951442489
0.7063945857303605
-0.0031306670476942333
-0.024204608238445918
0.02028838021906485
1.1028907954274985
0.20945935996491477
-0.1350219920709571
1.1642579495798764
0.1905046270417463
0.3642420287804225
-1.9887193581283116
0.004876754714175649
-0.0011784325182732796
0.5299623507130868
-0.01587735390417079
-0.0023005414779855007
-0.29210220212698135
-0.029464763520419594
-0.0017675580442922834
0.0013473010860927466
-0.3932682037445762
-0.0327273670541848
-0.0020499779078083005
0.0784354199858815
-0.03968494775237162
0.029797309806378226
0.38453974954197234
-1.9416991927285758
-0.1252820505727062
-0.05076821384323434
-0.14745830902860216
0.315826915527986
-0.005536238867419713
0.02035789179930878
-0.005860520649175904
1.5512162154505456
-0.0065095493552046035
0.3819364816776907
-0.6138757523673579
-0.02997410170543173
-0.025344806991516297
-0.20691092375438383
-0.06267264831930715
-0.750212880755966
-0.028745177121002698
-0.9874113753596708
0.369969277797384
1.7490314790875396
-1.7730430751502404
-0.0814000456121266
-0.018256482202628856
-0.5476372273582274
-0.07072348716596798
-2.435198764066141
1.1711363059600108
-0.026544390827003665
-0.1978959873085876
-0.060503330920117865
-0.0629076830805399
1.8558841462480307
-0.0030892170089676582
-0.0376727809028772
-0.008511323660816934
-0.03221658316043625
-0.001397562705289973
-0.011557647776965354
-0.0035134095350002875
-0.00495686037468494
-1.230677869737981
-0.015319356791799051
-0.42557463970768383
-0.03632395809789662
-0.33677327123086004
0.0019413516452017644
-0.03605611714451352
0.022777762748228732
-0.024195984489654446
0.3223053195168733
-0.0026885317466674745
0.01193531216586783
-0.18139103527983744
-0.38730352954362945
-0.06675564306319322
-0.5076453296464939
-0.024725296759496307
-0.004054485898086576
-0.6407205335737263
1.6158709326180305
-0.035955709679742875
0.8258439480955801
-0.0022059439863838523
0.2788199292589941
-0.2839548289753598
-0.032416916773016335
0.7797598155648989
-0.0035784137889593353
-0.002446767341446272
-0.018849912820710614
-0.006612141356260865
-0.006828147698912549
-0.3982278622374458
-0.058090410161293134
0.4512003220957944
-0.6758390223010335
-0.015971136001145327
-0.04023336834881384
0.0002948466127511601
0.5238141708568994
-2.1677264313636693
-0.0095947984732651
-0.03301531083129273
-0.043687605941453544
0.5869181767299355
1.419757287451112
0.9703890827316967
-0.0045641658770876675
0.0007596680899346665
-0.4302318080581126
0.08001849701449305
-0.008139881716615895
-0.06226772094879604
-0.0011267140519713665
-0.34736601181979876
-0.6335584033769882
-1.1075513710037035
-0.011076651590956301
-0.05438377905382637
1.8320543741514392
-0.032814992596305395
-1.084225001358055
-0.005158990491258465
-0.008685941940375735
-0.0147380140310748
0.001068282127462966
-0.7410704524825945
-0.018686335076212795
-0.09480045470191056
-0.0035897384432178737
-0.005916662743374281
-0.007796014803908585
-0.004004452872264615
-0.0036052967741020555
-0.00445525914393447
-0.0015067912989365296
0.011980084955374982
0.22992595038110736
1.3444054374665755
-0.6542828744610755
0.5399223450568594
-0.5582736998570519
0.4319883460070877
-0.027876099982604704
8.117463238430423e-05
-0.0034477441529990644
-0.007715380007292162
-0.004574305512413335
-0.004537621576218586
-0.029510505439813504
0.6754781074225736
-0.9531755881068105
-0.26806307227481524
-0.044718169609753056
-0.0019145058989156459
-0.0005906954845229157
-0.024862564219789048
-0.009494243548419344
-0.4026903663953129
-0.05155590393445119
-0.0023231309074750596
-0.018933706249821974
-0.05269684455655774
1.007109735848665
-1.1482354733326587
-0.0046659835224833
-0.007628696514219256
-0.15541108573578571
-1.0625355224704083
-0.004946215669364635
0.0023631323843329188
-0.20986162244595358
0.22379598030398623
-0.00845306678241227
0.059897673194656026
-0.3982909494345756
0.1932204781980296
-0.5724408130030113
0.0003291283006879859
-0.0034810564895133562
-0.0020325062287678
0.07752057362304869
-0.004752627603411843
-0.4199710460983185
0.11561636188455136
-0.06439885651481837
-0.2793224764227987
-0.0020828604174213676
-1.8121320018814702
-0.007860465318119722
-0.14970058488350954
0.11946546042613893
0.0009006504488452052
-0.01871463400998659
-0.004114924278422462
-0.008053794551776452
-0.009208386829301368
0.2987224079184183
-0.05362167964453225
-0.009273245456872095
-1.027435161579254
-0.6662115421520883
-0.009295008638426076
-0.0015323517903760358
0.15095647309736646
-0.41679538093249024
-0.10212892956598586
-0.007968744219615818
-0.5502590937754693
-0.0240342028703482
-0.769021168047036
0.008085549821621404
-0.02248327794771759
-0.0014780772504277755
-0.22410180555615544
-0.2232275519842268
0.22213187082742672
-1.667017255093109
0.0010846506619141916
-0.10556118083567563
-0.36889649491005155
-0.06866301127366214
1.4678011349628577
0.4044929362626408
-0.010110502468021403
-0.014589912766499229
-0.008692082170580895
-0.0921521831117268
-3.6241087953509274
-0.0016437763392119203
0.03415934547564981
-0.11779186259926158
-0.016010551184116997
-0.026638091619157384
1.0576145718028869
-0.034795146309058486
-0.016192852290621562
-0.012453229007422456
0.16811649006513935
-0.0025873393487605484
0.7888607495045271
-0.016460328191897314
-0.8806186761886472
1.74825032100035
1.3860020713785564
-0.001343026245570068
-0.002681887461361168
-0.14967552622546096
-0.019560880139694734
0.3345495921060646
0.015769298911062858
-0.011426887578349604
0.0706992195863518
0.42338990303962276
-0.02026413316432966
-0.0030003231224871715
0.04885818559188754
-0.7693196544860622
0.010529716691056743
-0.014931557996356358
-0.38488931470194676
-0.024228001969808358
-0.000322018574861117
-0.027807745328033973
-0.000368506386603693
-0.15600287676687097
-0.020425677437808914
0.08783153062226852
0.23198366937601286
0.050773081124101095
-0.022422112619713414
-0.08505593823768723
-0.006029193785132254
0.002727271716842367
-1.2641858895180813
0.05667737345918317
-0.3094663072465856
0.13773646959831076
-1.0263898272575498
0.013490935352056605
-0.007016584353756545
0.018395706873884365
-0.07378452163407268
-0.015710377161630994
-0.11940482192748954
-0.0062993407383222086
0.16619850592971144
-0.14792350260290757
0.3517931326085499
-0.13602750027815716
0.02785574831591436
1.3538695881642997
0.09653114759489742
-0.0031640399030172413
0.01650818242473795
-0.004336634705909758
0.4805566867393268
0.05299780860754287
-0.0031622418899688327
-0.005351566393440185
0.675731694762147
0.15658019692246447
-0.3699605703700561
-0.0005534899351654605
-0.02818063658315904
-0.5082001534078301
-0.00039856815984088827
0.0010682958348411347
0.001290505412971817
-0.6965609366177633
-1.6058977995789954
-0.0028753955619600234
-0.7391755081262682
-0.001763953977449524
0.3797908975646636
-0.636150984068069
-0.004756323583014295
-0.6167577378317536
0.0448011146133787
-0.010747376854663138
1.2977551940772734
0.17531266104474905
-0.4456390767544063
0.014997475209945332
0.0014503467603025095
-0.014691576007976128
-1.3370121672708006
-0.8031469884996807
-0.24977390871252503
1.1091388405514342
0.42216266645452905
-0.004450814391795655
-0.19790917829647162
-0.007724146414682853
0.01937411804295746
-0.7772535190439444
-1.055563872707613
0.005593419189144398
-0.007060289579630434
-0.019820018621618304
0.42133149270365183
0.4833850748217611
-0.015569318937774712
-0.04914899957671926
0.0008791398472783835
-0.0963631917485566
-0.010200253767427366
-0.012828043510140875
0.04931984093035599
0.532460315994448
-0.1798296671859475
-0.01711903888112317
-0.33628223688371084
-0.6287577075233527
-0.8218850791730493
0.3490291285117077
0.08971627187273098
-0.010902512925284777
-0.0035297706392746456
0.01159242138443763
0.3011642015029849
0.011093576113250613
-0.03168091889007906
-0.6185403085667952
-0.8079719084897471
-0.018466192569444803
-0.15083845703392393
-0.006901260844454632
0.3873781172670647
0.1674037115421174
0.0030135078583719975
0.034471440162379366
-0.7652543496482868
0.6927103711293396
-0.0034689816068108974
0.10274377337319884
-0.0033782536021537283
-0.7431819248625802
-0.24326760644366002
0.005882886538122586
-0.1215273585154801
-0.027489943840400387
-0.4261096674513389
0.020646626348461795
1.2371558882346698
0.38548219139459045
-0.9491423014185651
1.0450506802032717
-0.00931768251054229
-0.00813625916713868
0.00754319747996136
0.024108430240387294
-0.02876960482584753
0.010569439262094835
0.011441238661106832
-0.0039035209796816645
-0.1434270671497061
-0.023295584767235436
0.83666061777535
-0.2818524931704676
-0.22883778821075676
0.04935806032114671
0.46834839208661705
-0.18647146081623972
-0.40238430990730134
0.00032538319255469875
-1.949649510153003
0.047784844919074386
-0.45728094867240116
-0.007790820500978601
-0.014176904262879627
0.000696470544900779
-0.19907892246014094
-0.0022661483598336333
0.46691101417032665
-0.8022759748404842
0.8456280891186599
0.1976231387889534
-0.7367795138145383
-0.7920766942005957
-0.0004360655401928518
0.03933327002712716
0.04219634232083951
0.3948137391082661
-0.958361637241838
0.02385624689474377
0.001625450262936742
-0.0023494703084572517
-0.17937490388571137
0.445117273023167
-0.009507752675440987
0.0024497438379926756
0.0010221750383030644
0.0814217901020428
-0.011689175287238528
-1.02941141774343
0.1772868013109671
-1.9046143503954795
0.2823304194883774
-0.02404942538763419
-0.1723741215018268
0.00878220352316439
-0.25282344237306326
0.02774718292893861
0.7475000583385657
-0.14614248568999544
-0.9312227037885893
-0.0017546617276622061
-0.012729287495200324
-0.008640300728372442
-0.1711277582389061
-0.0018922350299978915
-0.007853012968857062
-0.026140737316126265
-0.2183102698921382
-0.006044916759562872
-0.11795709221857033
0.16964054880555185
-0.024479841029246812
0.36827792161383655
-0.9274996523848967
0.0017322341299527864
2.468884584329347e-05
0.023595311748957497
0.01975444011171737
-0.2373192101727211
0.06554323365826059
-0.001114515967476021
-0.04091766311046705
0.4439172391842167
0.009706389640425878
-2.956099813304636
-1.0425206222328067
0.1056274327683231
0.005479191097330025
-0.02030245009772301
-0.10954510663544519
-1.7598815654714133
-1.2754720897309229
0.6930903926761445
-0.0033224975753255786
-0.0088065243046459
-0.002393586929447758
-0.00851016316431847
-0.004909753930625727
0.3627025398777773
-0.01623443920777105
-0.022643634359677565
-0.005059799900817419
0.4891381799536545
0.005994183011796737
-0.11417779727126494
-0.006732213691074205
0.3176814381429937
-0.07145631477610515
-0.0713045374834982
-0.02000388370799724
-1.0710123930538449
-0.49218305900592574
0.2664411756419118
-0.48420790821878384
-0.8987663922297316
0.05413693672183976
-0.002226966153122093
-0.0043875199623782364
0.0004072689045381474
-0.005255368418980102
-0.0730658978507561
-0.6378076155375038
-0.5604326273567204
0.03357066077221555
-0.041688426389600346
0.7256550823350216
-0.5334741633745786
-0.54686600729103
-0.06053259090824122
-0.48931730502882764
-1.4068805124190134
0.08152323862937572
-0.060290414970229675
-0.003816323224257352
-0.027892889317023013
0.2380640454128509
0.6778429372098708
-0.031769175648745616
-0.0019360281564083704
-0.010816977292101397
-0.5053861078882542
-0.026046885727574912
-0.0031493418641446998
0.013962477346376975
-0.04293218876217678
0.08746572270927894
-0.0005527008716224301
0.020939906986284274
0.12434914618257938
-0.01998388725754469
-0.00540419707644961
-0.02883770525283985
0.31456046654737785
0.0023287798088208467
0.900831576501366
-0.003554942399171542
-0.009417510425956269
-0.5203798117261678
-0.1316560607191409
-0.009705188665713963
-0.2753115743098454
-0.008789937206676183
-0.6689324465746543
0.5681716648497687
0.09015922876310711
0.6601064959596148
0.06709743373928799
-0.38428906662040824
0.2800177590947018
0.008888815214232201
1.1537998547887829
0.9262450357989719
0.8252412501054318
-0.08838375369036182
0.00036564873012829863
-0.02085203747143257
-0.000564607851278645
-0.27974111750544456
0.10169102543103259
-0.004468390288112285
-0.2123866926491951
0.017034378964618912
-0.0757143603876471
0.010546580743313647
-0.5938471894142753
0.2681869993110418
-1.083647484097189
-0.0012308600889630508
-0.6990862126542058
-0.6186837186519228
-0.19567146391203719
-1.2943796353095862
0.18891510772258122
-0.100561644312484
-0.008522775927480693
-0.004189720580830251
-1.3414830766131525
0.007133302650811342
0.7895924188167622
-0.02240807239966887
0.6251278155294462
-0.30981309681761043
-0.006182353710732386
0.19677258197865757
-0.035150211547632974
-0.33700395644931985
1.7658247954720112
-0.1443824940895574
-0.6785038039764051
-0.0009169758737376407
-1.6519915711953828
-0.2952174159656619
0.08481163134053482
-0.01424577898843184
-0.007172774351149426
-0.0013673156453438825
0.14031106544059815
0.049480267410276196
-0.0708191468872258
-0.7333760002734134
-0.010811631975285204
-0.8596487207780068
-0.14287059557518028
-0.01667397718476584
-0.3538385620016979
-0.017878766393461608
-0.011139307377316492
0.050697956627631796
-0.008864984532075897
0.3675881023132191
-0.6184726888633655
-0.00010767180403481246
-0.008143039965002048
-0.4537006372201231
-2.1513215766006413
-0.002303137069300931
0.5682817480327178
0.007450869335650109
0.8073074677368579
-0.008845314794053776
-0.0019505167316582503
-0.0160149827933784
-0.0006253775371561524
-0.25702161714542854
-0.05435565901584549
0.0005977294315267849
-0.029493694699115135
-0.01765692500056117
0.6004563796739102
-2.1812337556192523
-0.009979154010533769
0.000657542153831719
-1.170936787071175
-0.006446577952331291
-0.013509514018367575
0.20037162809280618
-0.5061341924703776
0.12193568840541483
-0.4994521904988497
0.03884606862149867
-0.1294495673711749
0.7880842025215747
0.009141038192845972
0.0025901152432509854
0.15885835155969666
-0.04448002724565814
-0.0005200630932070671
-1.2525601850657477
-0.30230759512806965
-0.010829399849164823
-0.9051208316162733
0.23233695436034965
0.027551579575024944
0.12437224034297505
-0.017023445685280383
0.6370097919296275
0.21640316506890328
-0.7327480214573104
-0.4167426735821953
-0.004306597466520204
-0.1299950782530036
0.00042417223063452505
0.362997544604956
-0.003572515481375422
0.11201696799909376
-0.2008400562638976
-2.0104791232270642
-0.02716325171294035
0.7798913332372758
-0.30090855823269497
-0.0033700801447789372
0.0013696423038354194
-0.03222287103820848
-1.1225545403872255
0.03480953836933864
0.0973949379361284
-0.738366164169996
-0.481990726188831
-1.5680863803938783
0.3523108087735662
-0.006161262956610723
0.0003452117467649753
-0.059509955104693084
-0.0012818129918968587
-0.009150767256016497
-1.0868032966713252
-0.037628283211487694
-0.21636941589610165
0.0029442840145662724
-0.10571837725915409
-0.013932725639004221
-0.9075030980357089
-0.8510775795042228
0.03614011289428675
0.004088640202608063
0.6589043531518086
-0.09917863223302753
0.0008802686206327187
0.07764293926336971
-0.2836425120991222
-1.4547001304202982
-0.010227033717964218
0.25893942351229926
-0.19204945504136584
-0.028946530916966567
-0.002192723463732295
-0.6691292658340279
-0.7712006549109945
0.45643927626406344
-0.013196127251319415
-0.008324674327322977
0.47459957321169294
-0.08577714813834174
-0.02013675132373849
1.369862479960687
0.01096665340666802
0.15113769518369796
0.07891281920186316
0.054063783155792126
-0.029229044709725184
-0.3101652406105624
0.02427695612054492
0.27905229015960914
-0.0008608713934082657
0.0018724761369300759
-0.9638123270480685
-0.008563733254666637
-0.00905240111169811
-0.0038736809263701304
-1.868792546800138
0.3891846813483559
-0.026476596630952493
-0.08474943267737318
0.09110291133944462
-0.16447068600153564
-0.6068864682420941
-0.7633999519645976
0.029328801959259302
-0.22160558448200543
-0.2735168593737376
-0.005944439413462157
-0.011971165087639797
0.007164116938786635
0.5788324381478541
-0.007389354550963765
0.24350208521749145
0.0048516315160854855
-0.010509465551088656
0.0029061969660347953
-0.17166827641804416
-0.010030335136028806
0.2809902694640468
0.0008341458881908052
-0.005912356035657909
0.00025226650864153515
0.001241547408276001
0.048138080064660055
-0.0016241581098069401
-0.006516931645537947
-0.006884199347879234
0.005669240905041195
-0.44760130094748346
-1.3845383338878543
0.49289296546888606
-0.037165861360954504
-0.0212062268077227
-0.02494891837082849
-0.019337210340549353
0.28935709212663846
0.8964950871887701
1.5950229504016502
-0.037879426928762464
0.5228614401714422
-0.37382582386181834
0.010330819808284233
-0.04739231878466314
-0.01001317026466704
0.0006551019447393693
-0.43513928292198606
-0.6398757155974526
-0.25107292618712773
-0.006379453060114934
-0.0739682103696796
-1.1230972794726999
0.00034278908032677
-0.010100860081115768
0.23866927207934185
0.600047144470051
-0.00875757908110798
0.01040259610848525
0.8014514270396664
-0.2908999359418765
-0.003970005571141851
-0.006353252994562648
-0.23591379603890733
-0.7377566977518938
3.130718674495501e-05
0.009299336207561376
-0.028971738929334283
-0.6775771945628009
0.27057853344306787
-0.353358621292884
0.00564705587720505
0.0457459064036296
1.5256577305628631
0.5177621778088445
-1.8276651432397988
-0.06824019149733522
0.39275813181735575
-0.14457032015265375
0.16930868331639107
1.6125389682023712
-0.080598503065332
0.4174542115693083
0.007131180768934795
-0.005245718913565087
0.855104977560987
0.023074859685293714
0.042499631138952255
-0.006650625167882639
-0.32991369885036487
0.01694908173373913
-0.01590404882511192
-1.2078567539610539
-0.4319682951194531
-0.017299395945396336
0.00370052653459931
-0.7020536289773418
-0.003996169163727794
-1.2445240192619438
-0.003392346850746392
-0.016482560069624962
-0.008739996076477612
-0.01247890745472226
-0.00348659813959948
-0.005188423889277337
-0.06930730447240953
-0.003187009433291741
-0.0080197598638649
0.16308977504186067
0.06680017922997059
0.23775098812404252
0.028251505946173535
0.8499810673708834
0.5580365747676349
-0.03659009731464224
0.31594951793772763
-1.5998422650003719
-0.0050025120385725815
0.2405338219387084
-0.002451803616873641
-0.001594832865143949
-0.9428036597168528
-0.24989232839540962
0.29527640963140167
-0.004740373147841687
-0.9469553549423385
0.4570259923213385
0.13477783413120256
1.1454465374628393
0.00192312668169289
-0.02057524694253366
0.11417126546118006
-0.004285009048338786
-0.47026645058213346
0.007612649198712925
0.022776944444709964
